tree
version=v4
num_class=1
num_tree_per_iteration=1
label_index=0
max_feature_idx=19
objective=quantile
feature_names=family class city state type cluster year month weekofyear dayofweek onpromotion is_weekend is_holiday perishable dcoilwtico lag_7 lag_14 lag_28 rolling_7 rolling_14
feature_infos=-1:7:0:2:3:1:15:13:12:11:4:14:5:6:10:9:8 -1:16:27:42:7:41:40:116:1:19:122:43:129:6:86:120:90:13:118:9:17:89:34:32:121:91:98:71:22:100:72:28:97:8:48:29:80:44:20:95:125:130:3:23:31:12:51:74:36:81:10:124:79:68:117:46:24:70:55:111:77:126:84:4:21:50:114:25:92:57:93:54:53:63:123:112:69:39:0:94:60:59:87:62:65:38:56:108:45:18:33:37:76:75:85:2:26:113:30:109:115:15:119:101:58:110:66:73:106:99:88:14:67:105:104:78:82:5:107:128:35:83:64:103:47:49:102:61:127:96:11 -1:8:5:3:0:4:6:2:1:7 -1:5:2:0:6:3:4:1 -1:3:0:1:2:4 -1:12:6:5:9:11:0:8:13:4:7:1:3:10:2 [2013:2015] [1:12] [1:52] [0:6] [0:1] [0:1] [0:1] [0:1] [43.390000000000001:110.62] [-3:3129] [-21:2425] [-46:6010] [-21:3391.9218571428573] [-5.5:2002.8571428571429]
tree_sizes=6006 6512 6493 6553 6635 6513 6551 6585 6653 6581 6717 6654 6556 6625 6722 6623 6663 6605 6708 6687 6705 6775 6687 6708 6708 6682 6312 6764 6935 6791 6910 6929 6857 6333 6993 6894 6818 7019 6789 6920 6925 7013 6796 7142 7036 6750 6917 6866 6453 6370 6351 6956 7006 7045 7017 6962 6951 6975 6980 7065 6944 6983 7128 7027 7088 7062 6918 6395 7066 7021 6962 6987 6935 7000 6390 7018 6420 6897 6963 7002 6853 6303 6998 6852 6812 6845 7036 6836 6790 6902 7081 6907 6411 6365 6345 6841 6957 6991 6310 6915 6405 6437 6994 6787 6834 6878 6860 6955 7006 6868 6862 6940 6727 6399 6957 6431 6929 7027 6765 6723 6890 6926 6763 6399 6710 6893 6756 6892 6880 6381 6813 6804 6845 6815 7015 6354 7016 6952 6964 6430 7015 6754 7182 6903 7144 7048 6844 7095 6961 7005 6962 6553 7080 6823 6934 7036 6342 6839 7104 6962 7087 7065 7260 6873 6344 6919 6378 7064 7079 6708 7281 6303 6943 7182 6547 7229 7074 7076 7100 6953 6852 6337 6795 6889 7360 7165 6347 7172 6924 7205 6809 6254 7058 7187 7006 6491 6304 7195 6947 7199 6984 6143 6854 7095 7376 7197 6745 6954 7106 6987 6906 6774 6836 7239 7051 6763 6967 6977 6935 7165 7105 6808 6340 7050 6950 7066 7159 6836 6219 7234 7001 7039 7063 6781 6601 6757 6188 6485 7023 6993 7281 7114 6180 7084 7001 6972 6376 6847 6897 7005 7014 6314 7373 6950 6993 7042 7240 6805 6972 6396 6708 7227 7229 6866 6792 7122 6998 6956 6982 7328 7291 7088 6749 6250 6091 7012 6404 6956 6825 6649 7233 6143 7140 7245 6707 7123 6917 6368 7150 7090 6725 6582 6987 7299 6860 6174 6322 6902 6706 7026

Tree=0
num_leaves=64
num_cat=4
split_feature=18 15 15 18 17 17 17 9 9 9 19 18 18 9 18 9 18 9 19 19 9 19 9 18 19 19 19 15 17 9 5 18 17 17 17 10 19 19 0 18 17 18 9 18 19 10 19 18 10 5 9 18 18 17 9 19 9 9 19 9 7 5 10
split_gain=345779 31407.4 29912.4 8832.49 7526.87 6300.89 6200.67 3519.33 2672.83 2313.4 2875.73 1864.27 1804.25 1472.74 1398.58 1343.64 1286.65 1267.24 1159.59 1126.97 1651.2 1126.76 1082.18 844.534 567.704 494.111 459.743 436.464 396.719 396.13 395.798 380.603 366.799 343.687 335.1 319.029 289.729 260.726 250.295 241.99 227.794 225.063 213.752 246.177 202.841 189.591 189.162 182.957 181.462 177.769 168.452 156.634 155.291 152.741 151.673 150.916 146.796 146.256 141.499 138.206 129.009 173.588 123.077
threshold=38.428571428571466 33.000500000000009 50.011000000000003 23.71428571428573 39.001000000000012 41.00350000000001 47.017500000000005 4.5000000000000009 4.5000000000000009 4.5000000000000009 26.857142857142872 51.000000000000014 53.976214285714271 4.5000000000000009 65.714285714285793 4.5000000000000009 27.649500000000003 4.5000000000000009 28.572392857142837 53.285714285714199 4.5000000000000009 18.000000000000018 4.5000000000000009 31.142857142857157 50.143964285714311 30.285714285714267 20.642857142857157 46.005000000000003 37.001500000000007 1.0000000180025095e-35 0 45.142857142857174 34.003000000000007 42.007000000000012 50.031000000000006 1.0000000180025095e-35 55.000000000000014 43.151321428571443 1 43.142857142857189 32.001000000000012 63.285714285714299 4.5000000000000009 65.714285714285793 32.071428571428591 1.0000000180025095e-35 31.642857142857022 22.857142857142872 1.0000000180025095e-35 2 5.5000000000000009 89.428571428571459 152.6428571428572 36.998500000000007 4.5000000000000009 22.499999999999911 1.0000000180025095e-35 5.5000000000000009 13.357142857142861 4.5000000000000009 1.5000000000000002 3 1.0000000180025095e-35
decision_type=10 10 10 8 10 10 8 2 2 2 8 10 10 2 10 2 10 2 10 10 2 10 2 8 10 10 10 10 10 2 1 10 10 10 10 2 8 10 9 10 10 10 2 10 10 2 10 10 2 1 2 10 10 10 2 8 2 2 10 2 2 1 2
left_child=1 3 5 21 9 11 19 23 35 25 26 17 13 31 15 24 47 29 30 20 37 58 -23 40 45 62 -11 46 55 -2 -9 -7 38 49 -18 44 -13 -4 60 -31 -5 -14 43 -21 -6 -8 -12 -10 -27 -20 -28 54 -38 -32 -16 -24 -33 -29 -1 -60 61 -25 -3
right_child=2 4 6 7 8 12 14 18 16 10 27 36 41 -15 51 -17 34 -19 33 42 -22 22 28 32 -26 48 50 57 -30 39 53 56 -34 -35 -36 -37 52 -39 -40 -41 -42 -43 -44 -45 -46 -47 -48 -49 -50 -51 -52 -53 -54 -55 -56 -57 -58 -59 59 -61 -62 -63 -64
leaf_value=3.6665228605270386 3.7317703008651733 3.7097727298736571 3.7317703008651733 3.7069622787193111 3.7214534759521483 3.7326106548309328 3.7410274267196657 3.7317703008651733 3.7282600879669188 3.714776909351349 3.7273426294326781 3.7395987510681152 3.7482293844223022 3.7506107807159426 3.7605914354324339 3.7615348577499388 3.7366127967834473 3.7437678337097169 3.735056588845862 3.7442197780645814 3.7506107807159426 3.6979532957077028 3.7110715031623842 3.7615669625311225 3.7511888265609743 3.7204007983207701 3.7193459185955504 3.7334371089935301 3.7234945774078367 3.7224844336509704 3.7193254947662355 3.7424164056777953 3.7238667449276477 3.7410274267196657 3.7457288742065429 3.73850735324188 3.7494342565536498 3.738868808746338 3.7123373985290526 3.7282600879669188 3.7153650859884992 3.763001369726612 3.7760356664657593 3.7677922856892194 3.7292893214096239 3.7539828538894655 3.7334371089935301 3.7334371089935301 3.7349436097023867 3.727391654114399 3.725455605983734 3.8063106536865234 3.8003018825642583 3.7282600879669188 3.7784251928329469 3.7182265520095825 3.7373761653900148 3.7395987510681152 3.6849060070769526 3.7027188062667848 3.7182265520095825 3.7300459861755373 3.7241932668433124
leaf_weight=5154416 23338 95566 15343 327201 16451 37583 16178 32774 11508 44410 24619 29203 30683 22539 62365 78372 27267 18768 12832 21188 26819 587897 126766 7995 40081 65994 24923 12807 26629 61244 57900 8184 47545 12476 34408 3933 32453 23405 128556 57144 70886 36189 14159 31404 23075 1926 15822 18465 3068 17381 31637 149509 1524 8071 37360 37072 30542 17193 760014 287619 46333 16995 5204
leaf_count=5154416 23338 95566 15343 327201 16451 37583 16178 32774 11508 44410 24619 29203 30683 22539 62365 78372 27267 18768 12832 21188 26819 587897 126766 7995 40081 65994 24923 12807 26629 61244 57900 8184 47545 12476 34408 3933 32453 23405 128556 57144 70886 36189 14159 31404 23075 1926 15822 18465 3068 17381 31637 149509 1524 8071 37360 37072 30542 17193 760014 287619 46333 16995 5204
internal_value=3.71356 3.71034 3.74286 3.70958 3.7228 3.73239 3.75073 3.7146 3.73279 3.71885 3.72295 3.72691 3.73978 3.73549 3.75393 3.74986 3.73763 3.72405 3.72174 3.74139 3.73673 3.70901 3.7108 3.71303 3.74411 3.71471 3.71754 3.7307 3.71408 3.72243 3.71876 3.73217 3.71533 3.72863 3.74176 3.72258 3.73419 3.73013 3.71439 3.72126 3.71161 3.74612 3.74596 3.74449 3.72123 3.73676 3.72731 3.72914 3.71797 3.72574 3.72053 3.75616 3.73733 3.71653 3.75462 3.71316 3.73565 3.73527 3.70878 3.70931 3.71676 3.71966 3.71248
internal_weight=9.15121e+06 8.24371e+06 907503 7.76736e+06 476350 389394 518109 786945 135107 341243 171411 223674 165720 98848 385791 136557 91648 160494 141434 132318 65567 6.98041e+06 778364 645511 58185 169832 100970 70441 190467 141726 98745 76309 247424 42689 61675 43459 63180 38748 199879 118388 398087 66872 66751 52592 39526 18104 40441 29973 69062 30213 56560 249234 33977 65971 99725 163838 38726 30000 6.20205e+06 1.04763e+06 71323 24990 100770
internal_count=9151211 8243708 907503 7767358 476350 389394 518109 786945 135107 341243 171411 223674 165720 98848 385791 136557 91648 160494 141434 132318 65567 6980413 778364 645511 58185 169832 100970 70441 190467 141726 98745 76309 247424 42689 61675 43459 63180 38748 199879 118388 398087 66872 66751 52592 39526 18104 40441 29973 69062 30213 56560 249234 33977 65971 99725 163838 38726 30000 6202049 1047633 71323 24990 100770
cat_boundaries=0 1 2 3 4
cat_threshold=4624 44033 7832 8784
is_linear=0
shrinkage=1


Tree=1
num_leaves=64
num_cat=11
split_feature=19 15 15 19 16 16 17 17 15 17 19 17 19 17 17 19 16 15 16 19 1 17 19 15 19 19 16 17 19 1 8 15 16 15 16 16 5 15 15 19 16 15 19 16 1 19 1 8 19 16 17 15 15 1 15 8 1 19 5 1 1 19 1
split_gain=326450 33406.7 29942.6 8766.42 7107.96 6725.29 5952.37 2115.89 1706.63 1705.73 1654.85 1502.8 1450.91 1397.07 853.859 785.516 694.545 684.047 629.369 627.686 590.785 538.566 514.009 492.929 480.456 446.092 417.067 374.598 367.446 342.795 335.649 301.968 292.014 279.411 276.377 274.153 254.742 247.318 233.078 217.491 183.947 182.359 166.936 158.634 158.231 153.685 144.434 216.6 137.385 134.402 131.526 131.37 131.201 129.814 127.108 126.887 123.497 120.692 118.273 115.502 114.845 113.772 111.03
threshold=37.432249999999954 49.001500000000007 34.00350000000001 21.999999999999943 37.989000000000011 51.029000000000003 42.007000000000012 34.996500000000005 49.001500000000007 54.005000000000003 53.285714285714199 34.996500000000005 48.857142857142769 41.00350000000001 38.001500000000007 15.642857142857148 40.004000000000012 25.002500000000001 34.981000000000002 24.928571428571441 0 40.008500000000005 64.017464285714297 36.00350000000001 28.572392857142837 61.302571428571433 37.001500000000007 30.902500000000003 53.285714285714199 1 2.5000000000000004 44.008000000000003 35.991500000000009 36.00350000000001 43.008500000000005 44.006000000000007 2 45.031500000000008 89.075000000000017 64.017464285714297 38.011500000000005 35.001500000000007 25.21428571428573 36.019500000000008 3 29.000000000000018 4 1.5000000000000002 26.857142857142872 36.019500000000008 37.001500000000007 21.004500000000004 34.996000000000002 5 27.836000000000002 50.500000000000007 6 31.142857142857149 7 8 9 66.864750000000001 10
decision_type=10 10 10 8 8 10 10 10 10 8 10 10 10 8 10 10 10 8 10 10 9 8 10 10 10 10 10 10 10 9 2 10 10 10 10 10 1 10 10 10 10 10 10 10 9 10 9 2 10 10 10 10 10 9 10 2 9 10 1 9 9 10 9
left_child=2 6 3 15 11 13 12 17 14 29 16 19 23 28 42 -1 52 24 57 -4 30 -10 59 43 56 40 44 -17 49 -7 36 -13 46 -18 -25 -12 60 -21 45 50 -15 -28 -6 55 -14 -23 47 58 -16 -3 -31 -46 -8 -37 -20 -2 -5 -9 -22 -11 -19 -55 -24
right_child=1 5 4 7 8 9 10 18 21 22 35 31 26 25 48 27 33 20 54 37 32 38 62 34 -26 -27 41 -29 -30 39 -32 -33 -34 -35 -36 53 -38 -39 -40 -41 -42 -43 -44 -45 51 -47 -48 -49 -50 -51 -52 -53 -54 61 -56 -57 -58 -59 -60 -61 -62 -63 -64
leaf_value=-0.040617350339889537 0.010123593307084296 0.026190562248229979 -0.0002886946648239075 -0.0034688080964269787 0.0098623079061508148 0.069666528218252213 0.020526196956634515 0.0045648736760389051 0.021739435195922852 0.043659702539443984 0.035145334040524868 0.011558727473273472 0.038563036918640138 0.03286527752876283 0.015739557743072518 -0.014837793111801157 0.026302769184112541 0.046028216395233426 0.01296101748943328 0.0062345939874649094 0.043669997453689581 0.027173689603805552 0.079756658626786256 0.014964170455932613 0.0016904267738027557 0.049548625804132489 0.028397967662304222 -0.0017195856571197599 0.044221156956916308 0.036084413623626403 0.0068072224757366852 0.019471011161804209 0.0068072224757366852 0.028730347729466602 0.020568214654922493 0.036296586106276091 0.033833661079406732 0.014595720767974864 0.077083221503965557 0.05378451704978944 0.032259217500686659 0.028686017990112302 0.014286194548482746 0.014897993511931419 0.013795863389968877 0.028587965965271002 -0.0037375640869140581 0.0002949702739715621 0.021432929039001472 0.02548131465911865 0.035186817646026602 0.020472441911697392 0.021850564479827875 0.034721094369888308 0.015480706691741952 0.030210328102111817 -0.010522731703299537 0.010397944644486757 0.014400389194488517 0.044818120427709121 0.073366983081608925 0.050384167467954072 0.080043053627014166
leaf_weight=5661047 64245 21608 97900 95025 19651 4830 23280 78220 21184 44733 20132 44140 8536 21806 9364 948065 24524 1602 35156 69067 5422 11822 999 39116 141100 32629 18923 112866 23411 18178 23595 29328 36785 30729 17763 1276 10738 35428 4933 34960 29654 24660 36255 41767 4626 21369 139410 92910 29742 15735 28720 16987 21012 24357 25289 3812 332428 33006 12258 30955 3019 21143 218079
leaf_count=5661047 64245 21608 97900 95025 19651 4830 23280 78220 21184 44733 20132 44140 8536 21806 9364 948065 24524 1602 35156 69067 5422 11822 999 39116 141100 32629 18923 112866 23411 18178 23595 29328 36785 30729 17763 1276 10738 35428 4933 34960 29654 24660 36255 41767 4626 21369 139410 92910 29742 15735 28720 16987 21012 24357 25289 3812 332428 33006 12258 30955 3019 21143 218079
internal_value=-2.621e-05 0.0279984 -0.00320846 -0.00391778 0.00963296 0.0363165 0.0172392 0.000294789 0.0182261 0.0397994 0.0245074 0.00482589 0.0122074 0.0271441 0.0140718 -0.00458581 0.0204202 -0.000681222 0.00537915 0.00260246 0.00114572 0.0248813 0.0416126 0.00962421 -0.00172792 0.0313181 0.0180477 -0.00333726 0.021367 0.033634 0.00692254 0.0109512 0.000360797 0.0241595 0.0134022 0.0305884 0.0126769 0.00529762 0.028433 0.0344006 0.0284182 0.0211753 0.0101075 0.00766754 0.0135263 0.0269258 -0.000251201 0.0010981 0.0197392 0.0182882 0.0321796 0.0112304 0.0157554 0.0326881 0.0094859 0.00617886 -0.00256301 0.00314737 0.00617081 0.0380603 0.0224887 0.0331312 0.0428398
internal_weight=9.15131e+06 933185 8.21812e+06 7.78794e+06 430183 526297 406888 1.06596e+06 154320 381454 166453 275863 240435 144843 95012 6.72198e+06 99545 894292 171671 202395 325739 59308 294766 166703 568553 84089 73732 1.06093e+06 60754 86688 38954 73468 286785 55253 56879 66908 15359 104495 38124 81858 51460 43583 55906 109824 30149 33191 250000 110590 39106 37343 46898 21613 44292 46776 60445 68057 427453 111226 17680 75688 4621 45500 219078
internal_count=9151309 933185 8218124 7787941 430183 526297 406888 1065963 154320 381454 166453 275863 240435 144843 95012 6721978 99545 894292 171671 202395 325739 59308 294766 166703 568553 84089 73732 1060931 60754 86688 38954 73468 286785 55253 56879 66908 15359 104495 38124 81858 51460 43583 55906 109824 30149 33191 250000 110590 39106 37343 46898 21613 44292 46776 60445 68057 427453 111226 17680 75688 4621 45500 219078
cat_boundaries=0 4 9 10 14 19 24 28 29 33 37 42
cat_threshold=0 2145992832 33554433 1152 45145128 786459 1636565008 422641664 5 8784 541100048 3068746368 185074704 67207362 2550663248 2147489604 1164443678 4261971 2 4622856 526456 1094189056 540086272 1 268437504 875124608 50855952 65745 4624 2819170642 2839552260 140542340 71306290 0 403193856 33554432 128 428032 524296 17301536 553684992 1
is_linear=0
shrinkage=0.05


Tree=2
num_leaves=64
num_cat=11
split_feature=18 18 15 9 17 17 17 15 19 18 18 9 18 9 19 17 9 9 19 19 9 19 17 1 5 15 15 9 9 9 19 15 19 10 1 18 19 19 18 5 19 1 1 18 9 18 9 17 8 1 17 17 19 1 10 1 9 19 19 9 9 1 5
split_gain=309725 30335.6 27919.5 15821.9 6267.41 5647.43 4383.32 3180.85 1778.39 1550.22 1463.24 1461.19 1452.53 1436.42 1409.98 1194.5 1174.61 1096.77 1494.96 1055.16 908.995 579.717 572.509 529.79 526.007 519.459 473.5 371.654 361.02 360.205 357.497 328.615 300.517 294.405 259.171 257.619 246.813 242.573 234.02 228.27 214.935 211.264 201.192 199.721 195.815 188.995 187.001 186.336 183.598 182.971 182.953 181.74 175.818 173.89 169.867 162.952 156.165 152.681 143.398 140.956 140.93 138.92 144.356
threshold=39.142857142857174 25.142857142857157 52.001000000000012 4.5000000000000009 49.01550000000001 42.007000000000012 42.007000000000012 26.674500000000005 29.428571428571434 53.976214285714271 52.428571428571452 4.5000000000000009 71.428571428571487 4.5000000000000009 32.642857142857054 33.995000000000012 4.5000000000000009 4.5000000000000009 57.01278571428572 17.000000000000018 4.5000000000000009 50.143964285714311 37.001500000000007 0 1 42.001500000000007 44.008000000000003 4.5000000000000009 4.5000000000000009 1.0000000180025095e-35 20.000000000000018 37.00350000000001 21.999999999999943 1.0000000180025095e-35 2 46.203864285714296 44.196464285714192 57.01278571428572 65.714285714285793 3 22.499999999999911 4 5 71.428571428571487 5.5000000000000009 104.01028571428573 4.5000000000000009 56.001500000000007 51.500000000000007 6 31.006000000000004 29.798000000000005 32.642857142857054 7 1.0000000180025095e-35 8 4.5000000000000009 42.219285714285654 11.857142857142861 4.5000000000000009 2.5000000000000004 9 10
decision_type=10 8 10 2 8 10 10 10 10 10 10 2 10 2 10 10 2 2 10 10 2 10 10 9 1 10 10 2 2 2 8 8 10 2 9 10 10 8 10 1 10 9 9 10 2 10 2 10 2 9 8 10 10 9 2 9 2 10 8 2 2 9 1
left_child=1 7 5 14 17 10 8 19 24 11 16 35 13 21 23 28 29 18 36 58 -21 54 53 31 44 52 39 -17 -9 -2 -30 -3 -22 -24 -26 -7 -4 -12 56 -10 -29 -31 -23 -20 -5 46 -14 -27 57 -32 -43 -25 -8 -16 -6 -46 60 -19 -1 -60 -11 62 -33
right_child=2 3 4 6 12 9 25 15 26 38 37 -13 45 -15 22 27 -18 48 43 20 32 42 33 51 34 47 -28 40 30 41 49 61 -34 -35 -36 -37 -38 -39 -40 -41 -42 50 -44 -45 55 -47 -48 -49 -50 -51 -52 -53 -54 -55 -56 -57 -58 -59 59 -61 -62 -63 -64
leaf_value=-0.045892762959003443 0.017609055037507648 0.0018600647978886211 0.017920389332739952 0.012497044202623167 0.025230704286308026 0.018102864073453184 0.019106924332665677 -0.011349648315806028 0.020075288499123101 0.030128007352352149 0.025405856609344492 0.034094289422035205 0.04511887190974051 0.045216789662838 0.010259512275457384 0.00028040494983587737 0.02831986254453658 0.029632318258285519 0.029679286867089184 -0.015790988028049482 -0.0025147448182106127 0.035496869729817936 0.012131207654456095 -0.0056460282541208832 0.015698458097008362 0.0229894850254059 0.022566048860549939 0.0074574132561683552 -0.0038451048947876878 0.01875689376166019 0.011310493225349516 0.049765034473721076 0.0067372721731662867 0.026009686022360892 0.0045537314414977994 0.023080266594886781 0.024171786546707152 0.035371509253978743 0.046017600152524499 0.014557632388144582 0.013622170209884654 0.0085276982157705856 0.034750418785903729 0.053061260342175537 0.0085718865001073296 0.089520014524459846 0.063057030439376827 0.031431455576843979 0.033115261599985533 0.0023355987451964435 0.011714923193304833 0.0016413676029702453 0.026680165565169285 0.0033567094159010049 0.036454111064858921 0.021542517900466931 0.046898851161005749 0.048334048807621002 -0.028951284767471441 -0.012694693624973309 0.02459230404916395 0.012688777183002362 0.01896274733543395
leaf_weight=4597735 23938 76867 14539 24566 13104 37295 21856 143837 21887 19479 29355 22693 67174 81711 35410 21344 19467 10186 20681 748333 137628 21746 62694 303030 29029 24230 29819 30431 105373 18961 18164 4207 49253 3157 47415 33925 27067 31762 34316 27390 24140 61023 27191 25565 3380 109962 37439 21865 1449 51314 40067 84224 15455 116954 1648 18355 4814 29055 988806 350732 13879 24414 7925
leaf_count=4597735 23938 76867 14539 24566 13104 37295 21856 143837 21887 19479 29355 22693 67174 81711 35410 21344 19467 10186 20681 748333 137628 21746 62694 303030 29029 24230 29819 30431 105373 18961 18164 4207 49253 3157 47415 33925 27067 31762 34316 27390 24140 61023 27191 25565 3380 109962 37439 21865 1449 51314 40067 84224 15455 116954 1648 18355 4814 29055 988806 350732 13879 24414 7925
internal_value=-0.000133849 -0.00313344 0.0280759 0.00501261 0.0360457 0.0181179 0.0149764 -0.00425902 0.010992 0.025099 0.0129452 0.020859 0.0394299 0.0355715 0.00105906 0.000106524 0.0104773 0.0265683 0.0234251 -0.00450968 -0.00294865 0.0299425 0.00441319 -0.000402834 0.00722453 0.0246184 0.0168387 0.00574293 -0.00123613 0.00891877 0.000290217 0.00260251 0.000170669 0.00830883 0.0046751 0.0173385 0.0165486 0.0195455 0.0305921 0.0138293 0.00793086 0.00780206 0.0325616 0.0296116 0.0114302 0.0420444 0.040523 0.0281685 0.0333546 0.0030745 0.0068912 -0.00128303 0.0202325 0.00272951 0.0212541 0.0148896 0.0278985 0.034 -0.00475556 -0.00430032 0.0266836 0.00650605 0.0108788
internal_weight=9.15071e+06 8.27122e+06 879491 1.00413e+06 488517 390974 285247 7.26709e+06 201841 166401 224573 93913 359975 145400 718882 394603 163456 128542 87852 6.87249e+06 935214 63689 218215 500667 122745 83406 79096 75915 318688 143989 174851 113413 186881 65851 76444 71220 41606 61117 72488 49277 54571 120051 48937 46246 46301 214575 104613 46095 40690 69478 101090 387254 37311 152364 14752 21735 38172 39241 5.93727e+06 1.33954e+06 33358 36546 12132
internal_count=9150710 8271219 879491 1004129 488517 390974 285247 7267090 201841 166401 224573 93913 359975 145400 718882 394603 163456 128542 87852 6872487 935214 63689 218215 500667 122745 83406 79096 75915 318688 143989 174851 113413 186881 65851 76444 71220 41606 61117 72488 49277 54571 120051 48937 46246 46301 214575 104613 46095 40690 69478 101090 387254 37311 152364 14752 21735 38172 39241 5937273 1339538 33358 36546 12132
cat_boundaries=0 4 5 10 11 15 19 24 28 32 36 37
cat_threshold=268437504 4293739136 57147415 65664 4624 1208615056 1332311424 35684353 66576 3 7704 268470272 808190472 50857072 268540035 2415919298 4013948928 207618439 71305378 131713 613760 1914871816 66577 1 268470272 3064939016 1195378256 268507265 370164769 819752 27266652 1177601 0 4014014464 2097159 128 8786
is_linear=0
shrinkage=0.05


Tree=3
num_leaves=64
num_cat=15
split_feature=18 18 17 9 18 19 9 19 9 17 19 17 19 9 17 18 9 19 18 17 9 19 9 17 1 5 5 18 17 10 1 5 9 1 18 10 19 1 17 10 18 5 9 1 10 9 1 1 1 9 7 17 1 1 10 9 9 9 18 9 19 5 19
split_gain=289437 28089.9 26937.3 14576 6489.96 4775.89 4511.43 4416.68 4011.39 2519.6 1413.63 1383.99 1074.65 952.608 950.596 919.292 781.534 740.559 727.035 712.335 678.036 650.292 608.962 550.586 484.062 471.152 465.119 320.978 300.054 298.001 293.841 292.602 291.405 290.102 270.17 269.535 267.375 251.264 247.206 219.681 231.933 216.591 210.995 210.703 210.592 224.021 179.849 177.825 171.618 170.137 169.096 169.021 167.181 163.742 157.689 152.122 149.218 148.009 149.942 139.722 136.218 135.11 133.482
threshold=39.142857142857174 24.285714285714299 50.031000000000006 4.5000000000000009 63.285714285714299 53.285714285714199 4.5000000000000009 29.428571428571434 4.5000000000000009 27.694500000000005 32.071428571428591 45.003000000000007 50.143964285714311 4.5000000000000009 43.005500000000005 16.285714285714405 4.5000000000000009 89.860678571428551 61.14285714285716 34.003000000000007 4.5000000000000009 19.571428571428587 4.5000000000000009 36.001500000000007 0 1 2 46.203864285714296 35.002000000000002 1.0000000180025095e-35 3 4 5.5000000000000009 5 47.285714285714299 1.0000000180025095e-35 45.288464285714262 6 42.007000000000012 1.0000000180025095e-35 33.428571428571466 7 5.5000000000000009 8 1.0000000180025095e-35 1.0000000180025095e-35 9 10 11 2.5000000000000004 1.5000000000000002 29.798000000000005 12 13 1.0000000180025095e-35 1.0000000180025095e-35 2.5000000000000004 4.5000000000000009 83.285714285714349 1.0000000180025095e-35 22.21428571428573 14 35.428571428571338
decision_type=10 8 8 2 10 10 2 10 2 10 10 10 10 2 10 10 2 10 10 10 2 10 2 10 9 1 1 10 10 2 9 1 2 9 10 2 10 9 10 2 8 1 2 9 2 2 9 9 9 2 2 10 9 9 2 2 2 2 10 2 10 1 10
left_child=1 9 5 10 6 8 12 14 19 15 24 26 29 -11 25 -1 -17 20 22 27 30 -15 49 54 39 42 32 59 47 50 -6 -10 62 -18 -21 -25 -8 -27 -23 40 -3 -13 -5 -34 45 -14 -28 -20 -33 -7 -4 -26 -44 -47 55 -12 -29 58 -30 -2 -35 -42 -9
right_child=2 3 4 7 17 18 36 11 31 13 23 41 44 21 -16 16 33 -19 28 34 -22 38 -24 35 51 37 46 56 57 -31 -32 48 43 60 -36 -37 -38 -39 -40 -41 61 -43 52 -45 -46 53 -48 -49 -50 -51 -52 -53 -54 -55 -56 -57 -58 -59 -60 -61 -62 -63 -64
leaf_value=-0.037186548409707303 0.014343233222497576 0.00080627641635341082 0.014622182459140385 0.010822840674908064 0.037993005619073802 0.023202672141499427 0.033022406974434863 0.014203902363406604 0.032680362526783573 -0.010056073988147897 0.0081037498744732216 0.02777848079736538 0.03061538691388126 -0.0010110512390859362 0.018760120326664607 -0.016755996713042266 0.0056471797138452524 0.079623543560504925 0.058917519008604473 0.01393538582348779 0.054787717401981344 0.0056471797138452524 0.039731712169367932 0.011285650721364183 -0.0059046119402784043 0.01380234449398381 0.020649440365051227 0.020688678733588841 0.028757856252005942 0.035009477092922257 0.040438077401627387 0.021124077550741707 0.013187409379935913 -0.0050923643201589604 0.019260033763610209 0.023949023668115747 0.042046836295723922 0.0040212889001146708 0.013626810083347868 0.015181554658986934 0.037815877446391366 0.024802478985316793 0.0071877148089701214 0.025331814677063847 0.043256612464693311 0.026292835968180484 0.012267219734742252 0.041770287906614724 0.02884178954844889 0.018830431398911392 0.021672656235757582 0.00087092942353954599 0.019021244695036989 0.026297581883694979 0.017245387049305849 0.0025734598484363994 0.014066354921307879 0.054928972610831253 0.048560353671995585 0.0087282704861498146 0.0027853536756833794 0.014193722475018622 0.02084627270355929
leaf_weight=5758592 13549 75158 10861 29397 50424 25610 26965 18098 22092 209244 30191 31867 14258 103735 24151 778675 52992 149131 17903 49184 45892 58380 8341 72109 346404 34535 16236 27873 28216 2691 39700 5796 2866 157927 31611 3635 57932 55197 23701 5821 8318 21268 4216 19012 3368 17607 25165 19613 24627 19297 37833 91892 22292 26051 4314 130064 22147 6723 10692 64177 30598 17881 7472
leaf_count=5758592 13549 75158 10861 29397 50424 25610 26965 18098 22092 209244 30191 31867 14258 103735 24151 778675 52992 149131 17903 49184 45892 58380 8341 72109 346404 34535 16236 27873 28216 2691 39700 5796 2866 157927 31611 3635 57932 55197 23701 5821 8318 21268 4216 19012 3368 17607 25165 19613 24627 19297 37833 91892 22292 26051 4314 130064 22147 6723 10692 64177 30598 17881 7472
internal_value=-0.000245706 -0.00314633 0.0270131 0.00430301 0.0349502 0.0173733 0.0279852 0.0134507 0.0134116 -0.00428604 0.000673546 0.0199584 0.0214265 -0.000404497 0.00800857 -0.00451225 -0.00312888 0.039776 0.024956 0.0103013 0.0371079 0.00220094 0.0203944 0.00386864 -0.000734078 0.00648506 0.0161409 0.00797731 0.0278773 0.0160937 0.0345888 0.0257626 0.0195238 -0.000643993 0.0139758 0.00739636 0.0366893 0.00423871 0.00552619 0.00227787 0.0017356 0.0263419 0.0100881 0.0237641 0.0258979 0.0251911 0.0122563 0.0245647 0.0225441 0.0180899 0.0151986 -0.00147062 0.0133247 0.023414 0.00224498 0.00199104 0.0111016 0.0306008 0.0294171 0.00596673 -0.00156271 0.00578667 0.0159034
internal_weight=9.15157e+06 8.2714e+06 880164 1.09756e+06 482713 397451 197566 311772 261056 7.17384e+06 785787 141984 112669 395060 169788 6.77878e+06 1.02019e+06 285147 136395 208541 136016 185816 53248 240313 545474 145637 88849 127746 83147 51385 90124 52515 47448 241517 80795 75744 84897 89732 82081 107178 101357 53135 55905 21878 61284 57916 41401 37516 30423 44907 48694 438296 26508 43658 164569 160255 50020 45631 38908 77726 188525 26199 25570
internal_count=9151567 8271403 880164 1097559 482713 397451 197566 311772 261056 7173844 785787 141984 112669 395060 169788 6778784 1020192 285147 136395 208541 136016 185816 53248 240313 545474 145637 88849 127746 83147 51385 90124 52515 47448 241517 80795 75744 84897 89732 82081 107178 101357 53135 55905 21878 61284 57916 41401 37516 30423 44907 48694 438296 26508 43658 164569 160255 50020 45631 38908 77726 188525 26199 25570
cat_boundaries=0 4 5 6 10 11 16 21 22 26 31 36 41 45 49 50
cat_threshold=268437504 4293739136 52953111 65665 4624 6936 2282291538 4016177156 205521287 67111074 4632 133637 613760 1378525224 199697 1 3360325760 1862890880 35684353 66577 3 4888 277872672 1074135609 2624088 303092128 675947154 134839680 2147524800 270599188 2 4229392 2145475328 235405317 67111042 2 1351928840 17039873 274728018 1632657481 4 336593952 819768 27528796 1177857 2415919298 1631584768 207618212 71338210 8784
is_linear=0
shrinkage=0.05


Tree=4
num_leaves=64
num_cat=13
split_feature=18 18 17 9 18 9 17 19 19 9 9 19 19 18 17 17 9 18 17 1 18 18 9 17 1 8 1 10 19 8 10 1 17 10 9 9 1 10 18 9 18 1 18 18 19 1 9 1 1 9 1 17 19 17 18 7 1 1 9 19 1 9 9
split_gain=269886 29583.2 23818.8 13448.8 5985.49 4332.94 3841.36 3560.11 3549.17 3271.79 2791.09 1613.26 1384.6 1259.37 842.42 649.676 607.429 607.335 575.166 494.953 489.931 457.976 443.05 423.766 354.299 337.421 322.719 320.775 299.451 287.291 282.132 271.883 247.611 239.511 266.575 236.849 227.34 209.91 205.164 264.434 205.161 198.179 197.934 193.979 191.241 190.058 189.535 183.048 182.91 181.73 175.195 174.669 169.268 168.528 166.077 160.747 145.742 145.401 145.164 139.311 135.947 134.514 132.356
threshold=40.571428571428605 25.71428571428573 50.031000000000006 4.5000000000000009 68.428571428571487 4.5000000000000009 44.004500000000007 55.000000000000014 18.571428571428587 4.5000000000000009 4.5000000000000009 30.714285714285619 34.788864285714297 51.000000000000014 37.001500000000007 81.01700000000001 4.5000000000000009 68.428571428571487 35.002000000000002 0 13.142857142857149 32.49935714285715 5.5000000000000009 38.001500000000007 1 50.500000000000007 2 1.0000000180025095e-35 48.857142857142769 51.500000000000007 1.0000000180025095e-35 3 30.902500000000003 1.0000000180025095e-35 1.0000000180025095e-35 1.0000000180025095e-35 4 1.0000000180025095e-35 114.70657142857139 4.5000000000000009 27.000000000000018 5 34.000000000000036 48.52300000000001 45.288464285714262 6 4.5000000000000009 7 8 2.5000000000000004 9 59.00950000000001 44.196464285714192 36.001500000000007 78.649785714285755 1.5000000000000002 10 11 5.5000000000000009 34.215678571428519 12 5.5000000000000009 5.5000000000000009
decision_type=10 8 8 2 10 2 10 10 10 2 2 10 10 10 10 10 2 10 10 9 10 10 2 10 9 2 9 2 10 2 2 9 10 2 2 2 9 2 10 2 10 9 8 10 10 9 2 9 9 2 9 10 10 10 10 2 9 9 2 10 9 2 2
left_child=1 8 7 12 5 13 11 9 20 18 47 31 19 30 24 46 17 35 25 27 -1 61 -22 60 -12 44 58 42 -7 36 55 -5 -21 34 -15 -9 -11 -25 39 56 -33 -19 -3 -20 -2 -18 54 -10 -24 -43 -36 -23 -38 -37 -6 -4 -17 -28 -13 -59 -14 -8 -26
right_child=2 3 4 6 15 28 21 16 10 29 14 26 23 33 -16 38 45 41 43 32 22 51 48 37 62 -27 57 -29 -30 -31 -32 40 -34 -35 50 53 52 -39 -40 -41 -42 49 -44 -45 -46 -47 -48 -49 -50 -51 -52 -53 -54 -55 -56 -57 -58 59 -60 -61 -62 -63 -64
leaf_value=-0.038511873448001999 0.010177528094189203 0.0022205314171257046 0.013746839947630108 0.018275810496371593 0.031304579327949965 0.033011585019081816 0.017396098541251289 0.02748690588220426 -0.0047610179986059768 0.024258144358964475 0.0086054162355317897 0.020336222541135564 0.011888544090088927 0.030287650402065869 0.011608221540870357 0.045701825984081755 0.05342096535348502 0.041565332701804791 0.0142459598008087 -0.0037205107722285691 -0.018971238634817492 0.022585658054935006 0.0056175562568375531 0.01278024330433445 -0.0018785985514028658 0.031640553852261513 0.011151407579014477 0.016211342594211416 0.042514088446944959 0.0095799074981332208 0.034622977547575998 0.0071265925362278383 0.0030790679146360457 0.042866539117504189 0.026269421878243215 0.021068560771476862 0.027842238415431281 0.025301321791210075 0.086569995853304882 0.059576339694857608 0.010419722236630437 0.047100076772235523 0.017659607562013881 0.018754749028028896 0.01536603177349285 0.047218118869334302 0.060630515250202993 -0.012346343509936917 -0.0047712281003221783 0.035428223464709176 0.026328020402235631 0.031033898766312795 0.033778801263925545 0.021286459044731004 0.044817903904475959 0.020919558568738752 0.044708937261384564 0.013757617338617221 0.026910292427497415 0.019246420292717396 0.0047737926668506292 0.022306444808299644 0.0029010071141590708
leaf_weight=5091890 64400 83320 9276 39454 24545 34010 14758 9412 146131 7211 54492 13704 24439 17675 53643 22586 10666 2278 41747 320297 1083103 23995 25097 53529 85805 8074 8601 7476 56328 1717 2689 38390 93368 4151 19467 21588 19745 2702 74636 35537 51355 24140 36355 29818 46449 7994 18956 546973 155170 20194 35851 20097 18082 24196 51366 38001 24750 20250 11412 20988 93247 20244 81665
leaf_count=5091890 64400 83320 9276 39454 24545 34010 14758 9412 146131 7211 54492 13704 24439 17675 53643 22586 10666 2278 41747 320297 1083103 23995 25097 53529 85805 8074 8601 7476 56328 1717 2689 38390 93368 4151 19467 21588 19745 2702 74636 35537 51355 24140 36355 29818 46449 7994 18956 546973 155170 20194 35851 20097 18082 24196 51366 38001 24750 20250 11412 20988 93247 20244 81665
internal_value=-0.000338411 -0.00304637 0.0268937 0.00502955 0.0342955 0.0282155 0.0142497 0.0171721 -0.00414682 0.0136176 -0.00132759 0.0106255 0.0013756 0.0222654 0.00292856 0.0395339 0.0241721 0.022652 0.0107086 0.000127621 -0.00457654 0.0236046 -0.0036952 0.00525633 0.00156959 0.00857727 0.0164609 0.00285579 0.0365877 0.0254695 0.0160813 0.00724003 -0.000711006 0.0262707 0.0256064 0.0191032 0.0262347 0.00882689 0.0415027 0.0397902 0.00571695 0.0268545 0.00222833 0.0142503 0.00785848 0.0324652 0.0362651 -0.00302 -0.00140006 0.027594 0.0238984 0.0269945 0.0277933 0.0176182 0.0351483 0.0151853 0.037343 0.0141197 0.0210925 0.0153573 0.00355029 0.0193343 0.000429901
internal_weight=9.14948e+06 8.32195e+06 827535 997981 469824 217448 283248 357711 7.32397e+06 237243 968709 204154 714733 127110 275605 252376 120468 101808 190488 540816 6.35526e+06 79094 1.26337e+06 173917 221962 118923 74955 127151 90338 46755 49966 129199 413665 77144 72993 55196 45038 56231 157509 82873 89745 46612 119675 71565 110849 18660 94867 693104 180267 44334 55318 44092 37827 45784 75911 47277 47336 49839 25116 41238 117686 35002 167470
internal_count=9149485 8321950 827535 997981 469824 217448 283248 357711 7323969 237243 968709 204154 714733 127110 275605 252376 120468 101808 190488 540816 6355260 79094 1263370 173917 221962 118923 74955 127151 90338 46755 49966 129199 413665 77144 72993 55196 45038 56231 157509 82873 89745 46612 119675 71565 110849 18660 94867 693104 180267 44334 55318 44092 37827 45784 75911 47277 47336 49839 25116 41238 117686 35002 167470
cat_boundaries=0 4 9 14 19 24 29 34 38 42 46 50 54 58
cat_threshold=268437504 4293739136 57147415 67713 139781 613760 1914871848 66577 2 139108880 134839748 3489824768 1208026624 3 4857856 1862892996 1375764481 1073874048 3 296749096 393761 6554138 856711240 4 60966440 524385 2097184 1359024128 5 671089104 3953743236 100663428 67110034 2 335546368 2146260608 36175903 65601 133636 611456 696320 197776 2415919186 536871424 207618180 71305378 2282225986 4024434688 71303303 2178 305137696 1090781217 23594522 34611488 268468224 3030630952 3347055218 268503233
is_linear=0
shrinkage=0.05


Tree=5
num_leaves=64
num_cat=10
split_feature=18 18 15 9 17 17 19 15 18 18 9 17 18 17 9 15 9 19 17 19 9 15 1 5 17 9 9 19 15 9 9 19 19 17 19 10 5 1 15 9 19 9 17 17 15 17 8 19 1 15 1 1 18 1 17 18 1 1 9 10 9 9 18
split_gain=251689 27531.8 26098.3 12255.9 5274.2 5084.62 3844.49 2922.38 1389.45 1196.78 1309.46 1104.64 1083.1 1032.21 1028.24 977.856 917.205 1151.8 914.087 898.654 618.206 497.868 487.723 468.286 455.078 344.4 323.982 311.481 294.517 288.804 280.134 631.261 248.984 242.383 240.113 231.961 229.51 223.854 214.642 209.858 207.486 314.575 205.666 202.181 201.261 196.703 193.041 190.397 179.848 178.85 173.767 173.502 159.755 152.417 148.193 141.854 141.451 141.253 138.428 138.349 140.662 134.476 134.029
threshold=40.571428571428605 24.857142857142872 58.007500000000007 4.5000000000000009 60.050000000000004 44.004500000000007 30.714285714285619 23.006000000000004 33.428571428571466 57.285714285714285 4.5000000000000009 50.031000000000006 53.976214285714271 32.989000000000011 4.5000000000000009 92.018000000000015 4.5000000000000009 57.01278571428572 43.005500000000005 14.78571428571429 4.5000000000000009 47.010000000000012 0 1 33.995000000000012 4.5000000000000009 1.0000000180025095e-35 19.142857142857157 35.995000000000012 4.5000000000000009 4.5000000000000009 66.864750000000001 21.2867142857143 41.00350000000001 47.571428571428591 1.0000000180025095e-35 2 3 40.003000000000007 5.5000000000000009 108.36292857142855 4.5000000000000009 59.00950000000001 46.014000000000003 38.001500000000007 31.944500000000001 51.500000000000007 48.857142857142769 4 47.010000000000012 5 6 71.428571428571487 7 33.001500000000007 71.428571428571487 8 9 5.5000000000000009 1.0000000180025095e-35 1.0000000180025095e-35 1.0000000180025095e-35 83.285714285714349
decision_type=10 8 10 2 8 10 10 10 10 10 2 10 10 10 2 10 2 10 10 10 2 10 9 1 10 2 2 8 8 2 2 10 10 10 10 2 1 9 10 2 10 2 10 10 10 10 2 10 9 10 9 9 10 9 10 10 9 9 2 2 2 2 10
left_child=1 7 5 8 16 12 18 19 22 10 34 21 14 25 26 30 17 37 23 -1 -21 36 28 39 59 -9 -2 -27 -3 -15 31 51 -22 62 -7 -26 -8 -4 57 -5 41 52 -11 -31 53 -24 47 -18 -28 -13 -29 -6 -17 -14 -50 -46 -41 -25 -20 60 -10 -36 -19
right_child=2 3 4 6 15 9 11 13 24 42 -12 49 44 29 -16 40 46 33 58 20 32 -23 45 38 35 27 48 50 -30 43 -32 -33 -34 -35 61 -37 -38 -39 -40 56 -42 -43 -44 -45 55 -47 -48 -49 54 -51 -52 -53 -54 -55 -56 -57 -58 -59 -60 -61 -62 -63 -64
leaf_value=-0.035758647433417078 0.016377264278902442 0.0016265881346303889 0.027513600788038467 0.010536140399339797 0.03084066892665302 0.016775469085273699 0.018863135601492831 -0.011159467210803032 0.0087740204688375959 0.026168823347144644 0.029847457176107556 0.024082242919282404 0.040977502326371346 -0.00034938698828197018 0.025260444704631686 0.043418338934735734 0.028468221324630075 0.027886894141317387 0.01392667993809258 -0.015766490100836795 -0.0044510008408042267 0.021354936172750444 -0.0048949136474088165 0.012354420697462577 0.010591820043327482 -0.0044930855372945283 0.017343557784287807 0.0090614387078668656 0.015502025175307186 0.0056856383716410892 0.040461470101624687 0.0381791046574931 0.0051386569832970524 0.033995882104174445 0.023707713259670225 0.022982867902835647 0.013733942010788187 0.019953583634585985 0.011969290681615214 0.0079109996319916536 0.081933816884309077 0.053783155064083647 0.03793132074126402 0.013272227472321109 0.021983769057693229 0.001927665594350314 0.028587636744674291 0.045022244413465071 0.0078592118342455993 0.02754429932046747 0.00096453925617075674 0.027902293789034572 0.046340045380440481 0.021660813071871787 0.010998134553377153 0.037766026866541458 0.018633709591276228 0.0025800473120821234 0.019491899487788081 0.017661653867340182 0.0031919485877028864 0.02024843986392906 0.063361821687508632
leaf_weight=5430561 24325 92467 7090 29777 7979 32946 26363 228986 25445 29128 27479 18851 8351 31112 21450 5439 18535 15055 11552 996707 196052 32322 329801 25494 81121 146351 22223 24386 44045 50747 48660 52914 43305 34798 9719 3717 31812 24375 18703 4149 80025 45612 46846 18934 29771 83243 1561 27941 63808 22990 71892 13758 22026 21329 31955 9290 22548 46480 16796 3913 114024 33745 9533
leaf_count=5430561 24325 92467 7090 29777 7979 32946 26363 228986 25445 29128 27479 18851 8351 31112 21450 5439 18535 15055 11552 996707 196052 32322 329801 25494 81121 146351 22223 24386 44045 50747 48660 52914 43305 34798 9719 3717 31812 24375 18703 4149 80025 45612 46846 18934 29771 83243 1561 27941 63808 22990 71892 13758 22026 21329 31955 9290 22548 46480 16796 3913 114024 33745 9533
internal_value=-0.000436029 -0.00305048 0.0258601 0.0043747 0.0347073 0.0169498 0.0128192 -0.00416401 0.00103246 0.0232623 0.0197745 0.0192538 0.0120665 -0.00073556 0.00985549 0.0387015 0.0267583 0.0238038 0.00796702 -0.00445839 -0.0032416 0.0161477 -0.000329413 0.0063832 0.00431185 -0.00171713 0.00831731 -0.000404508 0.00226147 0.00385726 0.0353877 0.0334636 -0.000959802 0.0279017 0.0164082 0.00721445 0.0133833 0.0160694 0.00415567 0.00995733 0.0413704 0.0394442 0.0280317 0.00564566 0.0173338 -0.00118573 0.0323462 0.0329271 0.00723408 0.025972 0.00180425 0.02629 0.0352166 0.0142301 0.00629128 0.0196921 0.0131781 0.00291605 0.0161884 0.0025944 0.00233425 0.0188485 0.0241016
internal_weight=9.15231e+06 8.32465e+06 827666 1.08561e+06 415301 412365 307837 7.23903e+06 777776 179863 103889 132338 232502 572408 163761 276413 138888 90851 175499 6.66662e+06 1.23606e+06 90497 549556 147151 228220 471615 142311 242629 136512 100793 123311 74651 239357 59386 76410 84838 58175 31465 90677 56474 153102 73077 75974 69681 68741 413044 48037 46476 117986 41841 96278 21737 27465 29680 95763 39061 26697 71974 28348 143382 139469 43464 24588
internal_count=9152312 8324646 827666 1085613 415301 412365 307837 7239033 777776 179863 103889 132338 232502 572408 163761 276413 138888 90851 175499 6666625 1236064 90497 549556 147151 228220 471615 142311 242629 136512 100793 123311 74651 239357 59386 76410 84838 58175 31465 90677 56474 153102 73077 75974 69681 68741 413044 48037 46476 117986 41841 96278 21737 27465 29680 95763 39061 26697 71974 28348 143382 139469 43464 24588
cat_boundaries=0 4 5 6 10 14 18 22 27 31 36
cat_threshold=268437504 4293476992 124256287 67712 4624 5912 268437504 4292870160 90701959 2150 268470272 875315720 55051376 269523137 133761 134831488 4062347272 66704 268435520 4016046080 73400455 4196386 34816 1994740232 185073684 67141761 2 909131808 819744 10767964 1177601 3356000336 1734956480 34078729 16843777 2
is_linear=0
shrinkage=0.05


Tree=6
num_leaves=64
num_cat=8
split_feature=19 15 15 19 17 15 17 17 17 11 15 19 11 15 11 19 11 19 11 19 11 11 19 11 19 19 11 19 19 15 19 11 19 19 1 10 17 11 19 1 19 11 1 17 8 17 19 15 19 12 1 10 8 19 1 19 5 1 8 1 17 17 19
split_gain=230590 28490.2 24538.2 5642.05 5494.51 5473.07 4818.02 2457.06 1866.91 1679.63 1170.7 1050.69 1343.46 984.664 941.436 1052.32 931.567 865.977 801.501 737.166 641.196 612.03 561.394 555.69 505.071 489.867 462.234 665.063 411.252 394.188 360.351 323.011 333.107 304.581 302.056 261.309 254.189 232.712 480.902 228.633 226.156 351.525 220.21 216.186 212.155 205.647 204.062 201.971 195.429 188.794 187.089 185.609 185.117 182.164 170.212 168.849 167.877 163.129 147.406 144.456 144.453 142.789 141.49
threshold=39.651285714285727 58.007500000000007 30.005500000000001 21.500000000000018 63.003000000000007 44.008000000000003 47.017500000000005 40.008500000000005 36.998500000000007 1.0000000180025095e-35 39.002000000000002 59.151642857142839 1.0000000180025095e-35 88.009000000000015 1.0000000180025095e-35 61.302571428571433 1.0000000180025095e-35 12.28571428571429 1.0000000180025095e-35 29.857142857142801 1.0000000180025095e-35 1.0000000180025095e-35 28.21428571428573 1.0000000180025095e-35 27.571428571428555 55.000000000000014 1.0000000180025095e-35 27.21428571428573 27.928571428571306 80.015000000000015 31.142857142857149 1.0000000180025095e-35 50.143964285714311 48.857142857142769 0 1.0000000180025095e-35 31.944500000000001 1.0000000180025095e-35 64.017464285714297 1 122.74960714285706 1.0000000180025095e-35 2 41.00350000000001 1.5000000000000002 38.001500000000007 31.642857142857022 61.002000000000002 29.000000000000018 1.0000000180025095e-35 3 1.0000000180025095e-35 51.500000000000007 70.142857142857096 4 51.642857142857046 5 6 51.500000000000007 7 62.00950000000001 32.989000000000011 10.428571428571432
decision_type=10 10 8 10 8 10 10 8 10 2 10 10 2 10 2 10 2 8 2 10 2 2 10 2 10 10 2 10 10 10 8 2 10 10 9 2 10 2 10 9 10 2 9 10 2 10 8 10 10 2 9 2 2 10 9 10 1 9 2 9 10 10 10
left_child=2 6 3 17 14 8 10 16 26 19 31 12 33 37 15 35 51 -1 29 -5 -19 -10 56 25 -18 -12 34 39 -23 57 -20 32 58 -8 46 45 50 38 -6 44 41 42 -15 -17 -28 -3 -4 -32 -36 61 -22 -7 55 -44 -24 -16 -11 -9 -2 -33 -13 -21 -31
right_child=1 4 5 9 13 7 11 18 21 22 23 60 -14 40 52 43 24 20 30 49 36 28 54 -25 -26 -27 27 -29 -30 62 47 59 -34 -35 48 -37 -38 -39 -40 -41 -42 -43 53 -45 -46 -47 -48 -49 -50 -51 -52 -53 -54 -55 -56 -57 -58 -59 -60 -61 -62 -63 -64
leaf_value=-0.038025271346496962 0.0091079473044012142 0.019662892612335933 5.8722110476963933e-05 -0.0062907357713827498 0.027423568319561931 0.005078576611008071 0.016472110428770444 0.018290390837704489 0.0071997124245368003 0.0010861282502905181 0.013689911274346237 0.025954722994877319 0.028591954928806559 0.044906722565147633 0.027900204326774883 0.042557524886467732 0.0097787412789415024 -0.019195380773931993 0.017376483706886603 -0.0003132424143781121 0.00025330648477754901 0.009834016248039857 0.021382289823234146 0.026232710836275288 0.018071305301945732 0.022539008793119718 0.06050243054257709 0.012148999934058857 0.016616685723204374 0.059048666624474944 0.020584507005626557 0.013764294852630594 0.019049812512643143 0.021115272863914038 -0.007737001984052228 0.033695939555054594 0.0024604837591482688 0.038280987904995678 0.03591033656832409 0.0020204737135681712 0.081121890329949597 0.052195276302326545 0.034480702305518453 0.033049944521672966 0.0082085410965933928 0.020992307615066246 0.015123943028055774 0.032778965014444605 0.0024412905195067025 0.010194514089560062 -0.0077589234389689029 0.019136451848142774 0.028082566030721526 0.040440252944963409 0.012543234118900438 0.043899931447249269 0.0079129541069715478 0.010156801453298982 0.029116616287122449 0.031588273370307139 0.037640971180185487 0.0054179552359279425 0.026874890615092347
leaf_weight=4749854 92391 18248 38580 501782 13939 51115 38692 8873 48961 42861 62068 25000 30187 15973 24117 20766 27456 1429474 20642 126354 67859 32686 12435 19228 36523 32888 4132 37230 33108 2923 24158 3399 42576 37533 125797 2997 52148 40973 47198 125865 65180 54095 3464 36489 15045 18890 43022 14827 58644 29886 383884 3386 1574 18181 26973 27080 57572 13790 2302 10293 41161 55202 1109
leaf_count=4749854 92391 18248 38580 501782 13939 51115 38692 8873 48961 42861 62068 25000 30187 15973 24117 20766 27456 1429474 20642 126354 67859 32686 12435 19228 36523 32888 4132 37230 33108 2923 24158 3399 42576 37533 125797 2997 52148 40973 47198 125865 65180 54095 3464 36489 15045 18890 43022 14827 58644 29886 383884 3386 1574 18181 26973 27080 57572 13790 2302 10293 41161 55202 1109
internal_value=-0.000523383 0.0243304 -0.00305804 -0.00392562 0.0338157 0.00545682 0.0154637 0.0124561 0.002911 -9.63889e-05 0.0112317 0.021966 0.0188897 0.0382275 0.0262062 0.0232919 0.00778148 -0.00441439 0.0188722 -0.00107879 -0.00352229 0.00860158 0.00491412 0.0150518 0.0118735 0.0134822 0.00145439 0.00339405 0.0117515 0.0116717 0.0220959 0.00834219 0.00761173 0.0153542 0.000125486 0.0170842 -0.00198864 0.034406 0.032452 0.00186387 0.0407146 0.0391142 0.0354022 0.0276434 0.00694819 0.0159381 0.00265819 0.0249243 -0.000995144 0.0013975 -0.00237019 0.00297783 0.0315845 0.0320238 0.00997158 0.0321037 0.00292966 0.0091089 0.00596015 0.0156654 0.0269138 0.000791325 0.0260764
internal_weight=9.15104e+06 846882 8.30416e+06 7.53628e+06 409164 767872 437718 204802 563070 853065 265145 172573 106412 259003 150161 97390 118480 6.68322e+06 86322 713224 1.93336e+06 114755 139841 114184 63979 94956 448315 182272 65794 26695 59627 150961 137269 76225 266043 40135 503891 102110 61137 145042 156893 91713 37618 57255 19177 37138 81602 38985 184441 211442 451743 54501 52771 21645 39408 51197 100433 22663 94693 13692 66161 181556 4032
internal_count=9151038 846882 8304156 7536284 409164 767872 437718 204802 563070 853065 265145 172573 106412 259003 150161 97390 118480 6683219 86322 713224 1933365 114755 139841 114184 63979 94956 448315 182272 65794 26695 59627 150961 137269 76225 266043 40135 503891 102110 61137 145042 156893 91713 37618 57255 19177 37138 81602 38985 184441 211442 451743 54501 52771 21645 39408 51197 100433 22663 94693 13692 66161 181556 4032
cat_boundaries=0 4 8 12 16 21 22 26 31
cat_threshold=2415921152 4292953728 39845911 72834 0 1869173888 35651593 1152 2147483714 4024434688 73400455 2178 2053 537484672 304750600 66689 138946578 134831556 3489914880 1073808897 2 10311 335546368 4292870656 106954783 1058849 328646698 262265 23068690 537925699 4
is_linear=0
shrinkage=0.05


Tree=7
num_leaves=64
num_cat=13
split_feature=18 16 18 9 15 16 15 16 16 17 17 18 17 18 17 17 18 9 9 9 9 18 17 18 16 1 18 18 8 16 5 1 5 9 18 18 9 15 1 18 1 15 17 1 9 18 16 17 1 16 1 1 9 18 9 16 1 8 1 1 18 9 8
split_gain=215967 26230.7 25209.9 10403 4747.9 4378.54 3885.42 2555.73 1532.46 1498.86 1207.1 1204.14 970.357 835.034 827.907 660.814 633.334 592.189 562.308 555.886 464.241 591.193 441.246 419.188 366.474 362.966 361.317 343.996 334.37 310.396 305.693 294.343 283.46 279.405 327.733 264.619 270.383 247.213 246.962 243.943 243.87 240.613 234.74 198.076 195.746 196.812 184.37 183.261 177.3 170.237 167.471 160.087 160.03 159.914 155.438 154.265 140.591 137.344 132.114 128.076 125.603 125.517 122.296
threshold=41.428571428571459 58.013500000000008 23.71428571428573 4.5000000000000009 67.003000000000014 44.006000000000007 47.010000000000012 25.003000000000004 35.002000000000002 49.01550000000001 73.004500000000021 31.571428571428587 44.004500000000007 12.142857142857148 53.011000000000003 55.015000000000008 32.000000000000121 5.5000000000000009 4.5000000000000009 4.5000000000000009 4.5000000000000009 71.428571428571487 46.014000000000003 59.14285714285716 96.024500000000018 0 32.000000000000121 18.714285714285662 50.500000000000007 40.004000000000012 1 2 3 4.5000000000000009 61.14285714285716 53.976214285714271 4.5000000000000009 41.005000000000003 4 32.999999999999993 5 43.008000000000003 30.001500000000004 6 4.5000000000000009 75.000000000000071 42.00650000000001 28.854000000000003 7 39.00350000000001 8 9 4.5000000000000009 57.285714285714285 5.5000000000000009 36.019500000000008 10 50.500000000000007 11 12 19.026785714285769 5.5000000000000009 50.500000000000007
decision_type=10 10 8 2 10 10 10 10 10 8 8 10 10 10 10 10 8 2 2 2 2 10 10 10 10 9 10 10 2 8 1 9 1 2 10 10 2 10 9 10 9 10 10 9 2 10 10 10 9 10 9 9 2 10 2 10 9 2 9 9 10 2 2
left_child=2 6 7 8 14 11 12 13 16 18 31 22 28 -1 41 26 56 42 23 59 21 49 30 55 -12 37 61 -19 29 52 43 -6 58 34 -16 36 -14 -10 50 -27 -18 -3 -9 -5 45 -33 -29 -42 -32 -11 -21 -34 -2 -22 -28 -8 -4 -17 -13 -15 -40 -7 -25
right_child=1 4 3 5 10 15 9 17 25 20 24 32 35 19 33 57 40 27 -20 38 53 -23 -24 62 -26 39 54 46 -30 -31 48 44 51 -35 -36 -37 -38 -39 60 -41 47 -43 -44 -45 -46 -47 -48 -49 -50 -51 -52 -53 -54 -55 -56 -57 -58 -59 -60 -61 -62 -63 -64
leaf_value=-0.036124007779172108 0.0098337062061370391 0.025040817095994823 -0.00019091695510150506 0.022850523868479532 0.079758281415067009 0.011370104554984387 0.013670493491132986 -0.0071606297278677435 0.010365244435750988 0.020411101007420111 0.038329491719745312 0.022452296468024723 0.015026086714057982 -0.013552786158154874 0.024334796500035314 0.025173176206662706 0.010045268036593382 0.00022575144197757013 0.029503456005871145 0.021834002484163385 0.026227671783634578 0.035543292492328023 0.015161040275825788 0.023618891311781794 0.067192572508703571 0.0024372626805220332 0.016174747814132237 0.0052768161784685656 0.033653458366364977 0.01521233297783427 0.0108189657243601 0.028310537293587935 0.018515006799006983 0.03579843137010795 0.033492792187592671 0.025654865921283007 0.025943394753494983 0.018156875984887588 -0.0086216975031406136 0.0085602503664434348 -0.0011235817320788711 0.025052619114116471 0.0019638920850373574 0.0082356056220398034 0.03917543630290049 0.03919763715427263 0.012100189623198143 0.0047945233998570869 0.0018418844657596134 0.020929840754742246 0.00010037181992228472 0.010278142967976214 0.02688403324318997 0.046371086894960584 0.022244181924674727 0.015574203132402147 -0.0053867752001505844 0.014375371138550209 0.015610480098431682 -0.018887976166772916 -0.001702966587067345 0.016127399601558214 0.068348382085103396
leaf_weight=4723637 89891 20318 120858 11627 3029 15143 22078 258468 35254 15938 59061 11936 36076 343925 18282 29337 82778 80154 23212 2537 17680 28637 18148 28659 116823 60412 17240 40956 10492 39481 36968 15254 17418 22655 34657 30528 6913 15333 291998 63856 137717 32887 68073 48731 30634 24769 14273 60361 64251 24866 85284 23202 8024 12271 18648 22152 315168 1156 17568 1122415 76957 21507 2975
leaf_count=4723637 89891 20318 120858 11627 3029 15143 22078 258468 35254 15938 59061 11936 36076 343925 18282 29337 82778 80154 23212 2537 17680 28637 18148 28659 116823 60412 17240 40956 10492 39481 36968 15254 17418 22655 34657 30528 6913 15333 291998 63856 137717 32887 68073 48731 30634 24769 14273 60361 64251 24866 85284 23202 8024 12271 18648 22152 315168 1156 17568 1122415 76957 21507 2975
internal_value=-0.000603821 0.0242434 -0.00297823 0.00358629 0.0337914 0.010853 0.0156393 -0.00412757 0.000710707 0.0207195 0.037815 0.00727641 0.0110855 -0.0043775 0.0259948 0.0195261 -0.000312968 -0.000531301 0.0163674 -0.00349918 0.0250577 0.0228135 0.00510822 0.0142838 0.0400658 0.00490764 0.0169299 0.00224906 0.00875162 0.00809463 0.00427793 0.0324427 0.0128334 0.0293579 0.0273693 0.0157802 0.0132523 0.00847807 -0.00197609 0.00345322 0.00153876 0.0212165 -0.00168403 0.00709415 0.0330984 0.0308007 0.00528536 0.000586152 0.00259762 0.0189486 0.000406974 0.0101144 0.00658556 0.0302609 0.020496 0.0111406 -0.00150571 0.0257021 0.0165677 -0.00397364 -0.00254326 0.0134379 0.0186786
internal_weight=9.15154e+06 798242 8.35329e+06 1.24462e+06 378369 352880 419873 7.10868e+06 891737 198468 249570 249849 221405 6.64675e+06 128799 103031 716882 461924 99076 1.92312e+06 99392 69441 179725 75864 175884 174855 72538 135383 147888 137396 161577 73686 70124 75594 52939 73517 42989 50587 456776 124268 280856 53205 326541 60358 70657 40023 55229 198078 101219 40804 87821 40620 97915 29951 35888 44230 436026 30493 29504 1.46634e+06 368955 36650 31634
internal_count=9151536 798242 8353294 1244617 378369 352880 419873 7108677 891737 198468 249570 249849 221405 6646753 128799 103031 716882 461924 99076 1923116 99392 69441 179725 75864 175884 174855 72538 135383 147888 137396 161577 73686 70124 75594 52939 73517 42989 50587 456776 124268 280856 53205 326541 60358 70657 40023 55229 198078 101219 40804 87821 40620 97915 29951 35888 44230 436026 30493 29504 1466340 368955 36650 31634
cat_boundaries=0 4 5 10 11 16 20 25 30 32 37 41 46 50
cat_threshold=268435456 4292870656 2271215647 269576321 4624 1082170376 786480 1367875600 422645760 5 4632 2593 537482624 304783368 197777 2 268437504 4293478016 1128792085 71872 16 1537826240 2449612801 1073743009 1 134348928 1850308544 33587209 68625 2 2048 524288 139068050 671708612 3254812736 1090585601 3 268437504 908973984 117965329 5834944 2286461008 621952 3129024641 1140851712 2 268438560 1923970944 40370206 65617
is_linear=0
shrinkage=0.05


Tree=8
num_leaves=64
num_cat=16
split_feature=19 15 15 16 16 19 16 15 11 11 15 15 15 16 19 19 11 19 16 11 11 1 19 19 11 15 19 11 1 11 19 8 11 11 19 16 19 10 11 19 19 1 1 11 19 1 16 19 5 19 5 12 12 1 12 1 1 1 5 5 1 1 1
split_gain=195512 26012.8 22127.6 5754.65 5580.98 4961.76 4543.97 1782.98 1348.51 1311.23 1033.45 899.004 890.957 837.917 790.763 748.907 726.106 774.065 652.085 617.768 563.581 546.258 546.154 544.006 678.105 381.656 381.508 402.734 373.686 366.954 433.951 351.468 330.859 304.496 299.146 291.702 267.009 255.347 250.772 393.57 247.257 239.658 228.159 209.374 256.511 206.284 201.338 199.076 188.288 172.721 172.399 167.027 161.233 158.964 150.679 150.628 148.651 139.667 136.459 125.88 122.951 113.264 113.053
threshold=40.481428571428488 62.023500000000006 29.003000000000004 40.004000000000012 68.018000000000015 20.21428571428573 48.007500000000007 48.001500000000007 1.0000000180025095e-35 1.0000000180025095e-35 42.001500000000007 105.01700000000001 47.010000000000012 0.99750000000000016 10.642857142857148 29.428571428571434 1.0000000180025095e-35 50.143964285714311 46.008000000000003 1.0000000180025095e-35 1.0000000180025095e-35 0 26.857142857142872 27.21428571428573 1.0000000180025095e-35 99.00500000000001 61.302571428571433 1.0000000180025095e-35 1 1.0000000180025095e-35 64.017464285714297 2.5000000000000004 1.0000000180025095e-35 1.0000000180025095e-35 66.864750000000001 58.013500000000008 33.145357142857165 1.0000000180025095e-35 1.0000000180025095e-35 73.884660714285658 25.857142857142868 2 3 1.0000000180025095e-35 70.142857142857096 4 110.07700000000001 61.302571428571433 5 18.785714285714299 6 1.0000000180025095e-35 1.0000000180025095e-35 7 1.0000000180025095e-35 8 9 10 11 12 13 14 15
decision_type=10 10 8 10 10 10 10 10 2 2 10 10 10 10 8 10 2 10 10 2 2 9 10 10 2 10 10 2 9 2 10 2 2 2 10 10 10 2 2 10 10 9 9 2 10 9 10 10 1 8 1 2 2 9 2 9 9 9 1 1 9 9 9
left_child=2 6 5 7 18 14 16 23 37 15 26 38 36 25 -1 54 17 52 32 60 -15 -13 53 28 -25 -9 27 -8 31 30 -12 48 34 -30 -3 -14 -10 -5 39 45 -22 55 -18 44 -20 -6 -23 -19 -4 -35 -24 -17 58 -11 62 -21 -28 -26 -2 -51 -16 -49 -7
right_child=1 4 3 8 11 9 10 13 12 22 29 21 35 20 19 51 42 47 43 41 40 46 50 24 57 -27 56 -29 33 -31 -32 -33 -34 49 -36 -37 -38 -39 -40 -41 -42 -43 -44 -45 -46 -47 -48 61 -50 59 -52 -53 -54 -55 -56 -57 -58 -59 -60 -61 -62 -63 -64
leaf_value=-0.03776745004844715 0.0068482189148273481 0.020481143016622058 0.056206918646924134 0.0085895235973557377 0.030012912497244866 -0.0037809289189754654 0.016185494378828602 0.021153148646808628 0.011230461804106324 0.0082593317151895048 0.01864807516317844 0.088828588542827006 0.017020125850981227 0.0067228417437438853 -0.01541425447242468 0.0012552544484555562 0.035191075996443798 0.015135149570603967 0.022120254702891393 0.01759507181077466 0.0094118314741230887 0.042671554532377254 0.0074171546798674597 0.0035783780558204638 0.0175165500731768 0.064653068415423259 0.021744588768918677 0.027736667124715592 -0.0058084761188110911 0.028241875843476313 0.027441315818791747 0.0030322381449666429 0.03632365550358365 -0.0019590222300198117 0.037959086150958138 0.02381418203926584 0.017175223577581968 0.017751905397881993 0.035993006543795447 0.034513967480985654 0.017037206579707847 -0.008073883614928978 0.020120670693878906 0.031568484315343114 0.030913817923409484 0.025531412984127089 0.070363463003333404 0.016259082872106742 0.021643830380727883 0.006746235018173178 0.016165290616402626 0.009641709496525059 0.017321728013230921 0.00099532860117964423 -0.00083532181376309031 -0.0024864605313634105 0.034734554806142848 0.0092598813169858362 0.011680799541326101 0.0020767051368670983 -0.020780778478439999 0.025258729343652999 -0.0089498541782641727
leaf_weight=4175512 64120 23303 6596 51052 6597 124152 44859 7285 48712 33981 43801 2164 33639 39398 393301 189706 10021 59501 21607 3742 13337 33487 17417 147189 12103 3376 2042 10987 172383 35049 40405 22729 14691 53660 15292 19228 20706 5335 52365 49307 28035 441815 18384 29092 26492 11009 81709 5982 7265 51568 29994 30917 20351 82170 85545 172937 21504 39769 47662 65222 1312465 27459 389458
leaf_count=4175512 64120 23303 6596 51052 6597 124152 44859 7285 48712 33981 43801 2164 33639 39398 393301 189706 10021 59501 21607 3742 13337 33487 17417 147189 12103 3376 2042 10987 172383 35049 40405 22729 14691 53660 15292 19228 20706 5335 52365 49307 28035 441815 18384 29092 26492 11009 81709 5982 7265 51568 29994 30917 20351 82170 85545 172937 21504 39769 47662 65222 1312465 27459 389458
internal_value=-0.000694996 0.0226119 -0.00298673 0.00466507 0.0324994 -0.00385444 0.0145835 0.00253864 0.0126379 -0.00054432 0.0202458 0.0370771 0.0155876 0.00902697 -0.00435522 -0.00135987 0.0101462 0.00919549 0.0241971 -0.00361603 0.00728798 0.040184 0.00354324 0.00151314 0.00363002 0.0222019 0.0158258 0.0135752 0.000402544 0.0231883 0.0213989 0.00520492 0.0199428 -0.000110154 0.017512 0.0204781 0.0118631 0.00624107 0.0340202 0.0319921 0.0113637 -0.0022623 0.0176791 0.0271339 0.0251087 0.0255748 0.0406513 0.0126917 0.0114815 0.00138838 0.00806553 0.00113059 0.00673628 0.00169732 -0.00227692 -0.000705733 0.0211637 0.00854584 0.00599103 0.00246725 -0.00410688 0.0157784 -0.00260052
internal_weight=9.15094e+06 819242 8.3317e+06 848587 367115 7.48311e+06 452127 669915 178672 983340 198647 236638 122285 91431 6.49977e+06 819778 253480 225075 130477 2.32426e+06 80770 117360 163562 578484 199061 10661 79392 55846 379423 119255 84206 36590 53286 342833 38595 52867 69418 56387 119278 66913 41372 618494 28405 77191 48099 17606 115196 92942 13861 170450 47411 220623 132133 116151 599155 176679 23546 51872 111782 116790 1.70577e+06 33441 513610
internal_count=9150941 819242 8331699 848587 367115 7483112 452127 669915 178672 983340 198647 236638 122285 91431 6499772 819778 253480 225075 130477 2324260 80770 117360 163562 578484 199061 10661 79392 55846 379423 119255 84206 36590 53286 342833 38595 52867 69418 56387 119278 66913 41372 618494 28405 77191 48099 17606 115196 92942 13861 170450 47411 220623 132133 116151 599155 176679 23546 51872 111782 116790 1705766 33441 513610
cat_boundaries=0 5 9 14 19 23 24 25 30 33 38 43 44 45 49 54 58
cat_threshold=272664576 794648 17301552 16846848 4 0 2137079936 35651593 1152 134351397 537484672 304783368 16974993 2 134227984 136936836 4194828768 66564 2 64 4024434688 73400455 2178 12880 8259 1745364997 613824 302743560 1090716673 3 2048 524288 8 549488672 788697 2622736 69681 4 4241426 622020 2433515528 1226834944 2 6808 4624 268437536 908941184 40370206 4259921 2213356074 2147879153 2097156 810553376 4 268437504 917362336 117965329 4292689
is_linear=0
shrinkage=0.05


Tree=9
num_leaves=64
num_cat=17
split_feature=15 16 19 19 15 19 19 9 9 9 9 16 19 16 19 19 19 1 9 15 16 16 15 19 9 19 15 1 16 1 1 15 1 1 10 9 9 5 5 9 19 19 12 1 1 5 19 9 12 9 9 1 5 1 15 1 10 16 5 9 9 1 19
split_gain=179920 25556.2 24424.2 4531.7 4227.86 3834.01 3604.68 2809.18 1689.9 1517.57 1034.68 997.713 873.831 869.859 725.113 580.191 567.879 551.634 496.913 471.435 431.358 384.691 349.308 331.849 323.631 368.63 312.589 306.064 303.611 288.235 284.957 248.8 218.443 215.256 207.05 205.053 203.668 193.466 191.825 180.311 241.883 179.489 165.455 161.16 157.431 155.197 151.944 265.792 146.929 146.462 146.007 136.83 131.094 129.976 126.429 125.028 124.479 124.155 136.318 117.2 116.353 153.695 115.68
threshold=44.008000000000003 60.011500000000005 26.857142857142872 43.151321428571443 77.012000000000015 17.000000000000018 45.288464285714262 4.5000000000000009 4.5000000000000009 4.5000000000000009 4.5000000000000009 48.007500000000007 30.714285714285619 92.002500000000012 70.142857142857096 9.8571428571427653 34.788864285714297 0 4.5000000000000009 61.002000000000002 49.003000000000007 34.981000000000002 31.003500000000006 32.071428571428591 4.5000000000000009 66.864750000000001 132.47550000000004 1 40.004000000000012 2 3 72.001500000000007 4 5 1.0000000180025095e-35 5.5000000000000009 1.0000000180025095e-35 6 7 4.5000000000000009 73.884660714285658 23.21428571428573 1.0000000180025095e-35 8 9 10 51.642857142857046 4.5000000000000009 1.0000000180025095e-35 2.5000000000000004 4.5000000000000009 11 12 13 112.04000000000001 14 1.0000000180025095e-35 36.019500000000008 15 5.5000000000000009 4.5000000000000009 16 33.70842857142852
decision_type=10 10 10 10 10 8 8 2 2 2 2 10 10 10 10 10 10 9 2 10 10 10 8 10 2 10 10 9 8 9 9 10 9 9 2 2 2 1 1 2 10 10 2 9 9 1 10 2 2 2 2 9 1 9 10 9 2 8 1 2 2 9 10
left_child=2 6 5 7 19 15 9 16 22 23 14 33 41 39 28 -1 42 -15 -17 46 29 30 43 -2 25 -13 60 57 -8 -9 55 -12 -20 -5 -25 44 -18 -31 -32 40 56 -11 52 -7 -14 -37 47 -3 -35 -16 -48 -38 -4 -21 -30 -10 -6 -24 -59 -23 61 -19 -39
right_child=1 4 3 11 13 8 10 20 21 12 31 24 35 17 49 18 36 26 32 53 -22 59 27 34 -26 -27 -28 -29 54 37 38 -33 -34 48 -36 45 51 62 -40 -41 -42 -43 -44 -45 -46 -47 50 -49 -50 -51 -52 -53 -54 -55 -56 -57 -58 58 -60 -61 -62 -63 -64
leaf_value=-0.039584483734989642 0.0028188107326961218 0.01707004483646582 -0.0027926635734928516 0.024672257441334795 0.024767965021346108 -0.0064183381380622309 0.017197634892500726 0.017356967891818547 0.020929110815081548 0.0072589357426759375 0.025743903524998481 0.016797508246719425 0.021892159991643644 0.081030005722236093 0.03292484632244997 -0.021471802302456513 0.010454558943938298 0.035413229296999631 1.7253184466770044e-05 0.026849647939894375 0.016794572441410856 0.0032123052260110739 -0.00011646355862618941 0.010026854751016369 0.032514482054097814 0.032615460985885608 0.070332284961922481 -0.0054389119416327963 0.017489076580706142 0.0047619703234822904 0.0017926862964147113 0.039338586847919063 -0.0082317648610094503 0.010941035932548797 0.019159657419745679 0.021441464384076531 0.010953643045870154 0.0090126092562283419 -0.0043172566849710662 0.035040121722819166 0.033821648063139698 0.01222513874900534 0.0058037287210341085 -0.011267321875060278 0.013025862306413387 0.016538967238378815 0.025374407212430179 0.02153049922146888 0.020340172221853366 0.025756021272310262 0.033917814872144049 0.003870515505747526 0.0018632995628048037 0.029580563559573742 0.055865121531784002 0.0052531163084067797 0.032603440168032953 0.040657904880059104 0.010204305793336376 0.0079394520144027113 0.040539278230233712 0.039645342277796418 0.016054189420618759
leaf_weight=3848023 36764 9054 171136 23201 8392 261102 43920 27657 6602 17182 23377 48604 6002 2073 23964 1518663 34692 22181 74199 39125 30486 33136 9499 57958 12342 17325 67071 112762 61495 30010 132966 19436 531025 88006 3957 22366 26557 36962 124248 32414 28710 36657 52339 700965 28430 12251 35820 21645 15524 19187 9598 127630 135479 32557 2515 70605 1574 8272 9045 46373 32468 14522 13676
leaf_count=3848023 36764 9054 171136 23201 8392 261102 43920 27657 6602 17182 23377 48604 6002 2073 23964 1518663 34692 22181 74199 39125 30486 33136 9499 57958 12342 17325 67071 112762 61495 30010 132966 19436 531025 88006 3957 22366 26557 36962 124248 32414 28710 36657 52339 700965 28430 12251 35820 21645 15524 19187 9598 127630 135479 32557 2515 70605 1574 8272 9045 46373 32468 14522 13676
internal_value=-0.000781044 0.0223056 -0.00290993 0.00491279 0.0321124 -0.00384148 0.0138739 0.00296506 -0.00159555 0.00951705 0.0188525 0.0114364 0.0132251 0.0366824 0.0169081 -0.00441146 0.00135531 0.0389927 -0.0037481 0.0256376 0.00931901 0.00112821 -0.00261897 0.00489927 0.0158749 0.0144838 0.0393817 -0.000281493 0.0147179 0.00784013 0.000384978 0.0257138 -0.00253662 0.00869515 0.00713357 0.0169482 0.00357454 0.00632684 -0.000414698 0.0321874 0.0298821 0.00845029 0.000187572 -0.0029581 0.0142161 0.0196656 0.0228972 0.02018 0.00771682 0.0223864 0.0247338 0.00279573 -0.000255941 0.0285475 0.0169145 0.00304874 0.0231708 0.00451875 0.00704019 0.0042543 0.0370263 0.0350975 0.00821276
internal_weight=9.15178e+06 772665 8.37911e+06 891626 357204 7.48748e+06 415461 686624 1.51558e+06 221567 193894 205002 122888 209405 151081 5.97191e+06 547833 138315 2.12389e+06 147799 138791 413930 1.10164e+06 98679 78271 65929 136242 139578 107930 108305 334421 42813 605224 126731 61915 69049 188879 80648 257214 71090 38676 53839 358954 962067 34432 34617 76117 30699 103530 43151 45418 154187 306615 71682 64010 77207 9966 26816 17317 79509 69171 36703 50638
internal_count=9151776 772665 8379111 891626 357204 7487485 415461 686624 1515575 221567 193894 205002 122888 209405 151081 5971910 547833 138315 2123887 147799 138791 413930 1101645 98679 78271 65929 136242 139578 107930 108305 334421 42813 605224 126731 61915 69049 188879 80648 257214 71090 38676 53839 358954 962067 34432 34617 76117 30699 103530 43151 45418 154187 306615 71682 64010 77207 9966 26816 17317 79509 69171 36703 50638
cat_boundaries=0 5 9 14 19 23 28 29 30 34 38 39 43 44 48 52 53 57
cat_threshold=268470272 794648 17309712 1090585088 4 2147483648 4292952192 39845903 1152 138459152 622020 2433232896 1476461569 3 534533 1846107520 1376419880 66689 3 2048 611712 2793480 66560 34816 808272392 50855936 269555905 1 8259 4912 268437504 1995265920 1193803792 4292689 536903696 535304 270532864 1024 7057 268470272 873087496 126354448 268556481 6808 2819096898 3879731460 207651206 67112098 0 589952 0 1024 12880 2281701442 4024516608 71303303 2178
is_linear=0
shrinkage=0.05


Tree=10
num_leaves=64
num_cat=18
split_feature=19 16 19 9 17 17 19 19 9 9 19 19 9 19 9 19 17 9 17 19 1 17 5 19 19 10 9 1 1 1 9 10 1 17 1 16 7 17 16 1 9 10 17 10 17 19 1 19 5 1 16 17 1 19 1 1 1 16 1 1 10 9 5
split_gain=164869 22914.1 20559.6 6991.65 4431.43 3695.18 2824.32 2098.61 1233.12 1119.89 1096.96 977.417 1096.75 883.351 845.052 822.303 810.372 757.738 749.927 716.365 491.711 421.17 417.121 375.154 371.659 348.475 333.636 324.26 278.005 268.544 266.072 260.884 249.83 248.984 246.347 239.659 235.376 222.518 217.359 214.352 204.104 203.519 199.651 195.865 194.424 187.537 185.859 185.595 176.187 219.384 169.517 166.811 164.372 156.197 155.215 153.703 153.034 152.485 151.827 147.717 133.639 139.279 129.434
threshold=41.288250000000012 66.004500000000021 23.500000000000018 4.5000000000000009 72.00500000000001 51.00350000000001 31.142857142857149 14.500000000000004 4.5000000000000009 4.5000000000000009 32.642857142857054 108.36292857142855 4.5000000000000009 55.000000000000014 4.5000000000000009 59.151642857142839 50.031000000000006 4.5000000000000009 42.007000000000012 70.142857142857096 0 35.933000000000007 1 8.8571428571428612 70.142857142857096 1.0000000180025095e-35 5.5000000000000009 2 3 4 1.0000000180025095e-35 1.0000000180025095e-35 5 36.998500000000007 6 36.019500000000008 11.500000000000002 114.04450000000001 50.001000000000012 7 1.0000000180025095e-35 1.0000000180025095e-35 74.004500000000021 1.0000000180025095e-35 25.740500000000004 57.01278571428572 8 78.309392857142811 9 10 47.00350000000001 41.00350000000001 11 57.01278571428572 12 13 14 56.001500000000007 15 16 1.0000000180025095e-35 1.0000000180025095e-35 17
decision_type=10 10 8 2 8 10 10 10 2 2 10 10 2 10 2 10 10 2 10 10 9 10 1 10 10 2 2 9 9 9 2 2 9 10 9 8 2 8 10 9 2 2 10 2 10 10 9 10 1 9 10 10 9 10 9 9 9 10 9 9 2 2 1
left_child=2 5 7 10 17 9 18 23 55 13 20 12 24 30 15 60 27 19 22 31 35 34 28 -1 41 33 -25 -8 -5 -11 -2 51 -24 -12 -10 -4 50 -13 -29 -21 -17 -6 -16 52 -22 -14 -19 -42 49 -37 -15 -3 -32 -48 -28 -9 -27 -18 -26 -38 61 -7 -36
right_child=1 4 3 6 11 14 16 8 21 29 25 37 45 36 42 40 57 46 -20 39 44 -23 32 26 58 56 54 38 -30 -31 43 -33 -34 -35 62 48 59 -39 -40 -41 47 -43 -44 -45 -46 -47 53 -49 -50 -51 -52 -53 -54 -55 -56 -57 -58 -59 -60 -61 -62 -63 -64
leaf_value=-0.041607389579825863 0.014046326199735224 0.017646784766696306 0.00063172143733823043 0.022305961330302462 0.024930045591354113 0.019207239595915866 0.01999861799080227 -0.008644905275186408 0.0029880647177744622 0.032173455306750309 0.0035094470173764104 0.039442152303660001 0.029732173732059899 0.015897409520326804 0.023005865808727925 0.029010589345410145 0.018529696604852559 0.027272070832638835 0.013127345799437948 0.061425397632024807 -0.0062707844345184548 0.0060697555133730459 0.010187012858888709 -0.020506982760674353 0.031754558026787102 0.019823610754988587 -0.0010599821971028157 0.010823334357901305 0.0080277891241003745 0.018447803886265324 0.014303853016058044 0.030942064565844165 0.00091398669491476396 0.0084021844648022991 -0.0011796475674102202 0.042530549297057581 0.059054038785851561 0.067150428776953458 0.014526052269009946 0.030831340885519677 0.020133191922378599 0.033555488728978192 0.034853495156375223 0.022646337242004815 0.00020651005726047083 0.039265403216491399 0.023996639216786672 0.028968588359054633 0.0071152546256736037 0.011942421836204408 0.017452111948343549 0.019035282799625877 0.0069981742652104641 0.036966427977845835 -0.0085176664002948772 -0.013415911287170769 0.0072830229161979084 0.022285252925763083 0.030665191119539831 0.021281420948438261 0.026170115266316393 0.015129173962283924 -0.0064030385623354176
leaf_weight=3432593 30121 14952 120257 16574 13862 13808 24748 297933 96434 18236 185519 23483 15598 42169 26902 12347 25368 2268 43456 2522 355389 56977 51924 1685800 17105 5764 74023 51708 60526 24402 28353 2685 77392 81818 169152 5245 5954 64081 17414 38278 33109 2071 16810 3917 149023 50451 20630 23215 44576 18080 29464 20098 100859 20218 209014 850993 3528 16046 21361 5626 2660 42546 134438
leaf_count=3432593 30121 14952 120257 16574 13862 13808 24748 297933 96434 18236 185519 23483 15598 42169 26902 12347 25368 2268 43456 2522 355389 56977 51924 1685800 17105 5764 74023 51708 60526 24402 28353 2685 77392 81818 169152 5245 5954 64081 17414 38278 33109 2071 16810 3917 149023 50451 20630 23215 44576 18080 29464 20098 100859 20218 209014 850993 3528 16046 21361 5626 2660 42546 134438
internal_value=-0.000858794 0.0209722 -0.00292177 0.00271773 0.0310356 0.013768 0.00841651 -0.00401175 -0.00242485 0.0103194 0.000453058 0.0354688 0.0325465 0.00902502 0.019585 0.0175308 0.0142355 0.0234552 0.00526606 0.0205313 -0.000610048 -0.00022802 0.00400923 -0.00448356 0.0272892 0.00311466 -0.00393336 0.0116651 0.00691998 0.0178013 0.0068879 0.0155658 0.00227309 0.00278381 -0.000800878 0.00157125 0.0132177 0.0394886 0.0099012 0.0251238 0.0212505 0.0208677 0.0255854 0.00592775 -0.00142373 0.0368765 0.028781 0.0199743 0.00394611 0.00746625 0.0121485 0.0144151 0.00559383 0.0295563 -0.00234487 -0.00329867 0.0126334 0.0200616 0.029949 0.0198316 0.0132025 0.0126855 -0.00150017
internal_weight=9.15187e+06 790161 8.36171e+06 1.35436e+06 329663 460498 385156 7.00736e+06 1.60593e+06 289101 969199 208012 120448 246463 171397 127685 135284 121651 249872 78535 692570 457001 206416 5.40143e+06 54399 276629 1.96884e+06 93870 77100 42638 163250 37735 129316 267337 400024 188158 83213 87564 69122 40800 68671 15933 43712 133129 504412 66049 43116 56324 67901 23325 71633 35050 129212 40848 283037 1.14893e+06 9292 41414 38466 11580 59014 56354 303590
internal_count=9151873 790161 8361712 1354355 329663 460498 385156 7007357 1605927 289101 969199 208012 120448 246463 171397 127685 135284 121651 249872 78535 692570 457001 206416 5401430 54399 276629 1968837 93870 77100 42638 163250 37735 129316 267337 400024 188158 83213 87564 69122 40800 68671 15933 43712 133129 504412 66049 43116 56324 67901 23325 71633 35050 129212 40848 283037 1148926 9292 41414 38466 11580 59014 56354 303590
cat_boundaries=0 4 5 10 15 20 24 29 34 39 40 43 48 53 57 61 65 69 70
cat_threshold=268437504 4293478016 57147415 65729 4624 4237840 134839680 2416680960 1210123792 3 2064 1336507840 302030881 1073743521 1 138414864 1210678660 2315780512 67175444 2 134873232 1850308480 36175873 66707 133637 613760 1915461672 197649 3 4237344 794712 17302544 289476720 4 293903880 262160 1367868432 422662208 5 8784 0 3881893888 2097153 805341184 269304344 55313520 268540096 1 134351364 134831488 172041 2147550352 2 335546400 883775360 1114112030 4261905 131072 4158652416 382205959 1 2148008002 4024434688 2220884103 2178 2415954192 2490131224 40371346 67108898 5936
is_linear=0
shrinkage=0.05


Tree=11
num_leaves=64
num_cat=14
split_feature=18 16 18 11 15 15 16 17 18 17 17 18 17 18 17 16 17 11 16 16 11 11 1 16 17 18 16 1 5 11 15 11 18 16 11 18 1 1 11 5 11 10 11 18 1 1 1 1 1 1 1 18 16 11 17 18 17 10 17 11 1 18 18
split_gain=153634 21103.5 21052 7077.23 3584.08 3468.01 3322.51 2148.32 1304.76 1195.54 1079.22 1024.25 1016.41 742.38 650.886 584.728 530.357 432.303 422.224 407.556 356.605 352.894 347.475 338.204 322.52 317.555 314.536 292.637 274.848 273.279 268.439 268.404 266.321 253.433 252.24 247.702 246.258 243.921 232.639 199.582 191.49 191.063 180.722 168.324 155.788 154.139 145.332 144.684 143.842 143.841 142.337 141.043 140.536 135.297 128.593 125.806 121.886 121.002 120.084 115.956 115.86 112.832 111.024
threshold=43.142857142857189 69.004500000000021 22.857142857142872 1.0000000180025095e-35 78.001500000000007 55.012000000000008 47.00350000000001 20.001000000000001 33.428571428571466 57.002000000000002 47.017500000000005 30.71428571428573 92.00500000000001 10.428571428571429 62.00950000000001 30.826500000000006 59.00950000000001 1.0000000180025095e-35 40.004000000000012 29.005000000000006 1.0000000180025095e-35 1.0000000180025095e-35 0 138.04300000000003 47.017500000000005 75.000000000000071 41.003000000000007 1 2 1.0000000180025095e-35 55.012000000000008 1.0000000180025095e-35 75.000000000000071 47.00350000000001 1.0000000180025095e-35 75.000000000000071 3 4 1.0000000180025095e-35 5 1.0000000180025095e-35 1.0000000180025095e-35 1.0000000180025095e-35 63.285714285714299 6 7 8 9 10 11 12 75.000000000000071 43.008500000000005 1.0000000180025095e-35 40.008500000000005 129.29557142857144 33.995000000000012 1.0000000180025095e-35 27.694500000000005 1.0000000180025095e-35 13 29.857142857142886 129.29557142857144
decision_type=10 10 8 2 10 10 10 10 10 8 10 10 8 10 10 10 10 2 10 8 2 2 9 10 10 10 8 9 1 2 10 2 10 10 2 10 9 9 2 1 2 2 2 10 9 9 9 9 9 9 9 10 10 2 10 10 10 2 10 2 9 10 10
left_child=2 5 7 8 14 10 11 13 19 20 26 24 27 -1 40 29 30 50 54 58 33 25 57 42 39 -11 36 -6 46 -9 61 32 52 44 35 -16 -2 49 60 48 43 -20 62 -3 -7 -30 -13 -41 -5 -19 -15 -23 -12 -17 -10 -27 -31 -21 -4 -28 -29 -8 -14
right_child=1 4 3 6 12 9 16 15 18 21 31 28 23 17 34 53 -18 37 41 22 -22 51 -24 -25 -26 55 59 38 45 56 -32 -33 -34 -35 -36 -37 -38 -39 -40 47 -42 -43 -44 -45 -46 -47 -48 -49 -50 -51 -52 -53 -54 -55 -56 -57 -58 -59 -60 -61 -62 -63 -64
leaf_value=-0.034137079295084381 0.067341186176679682 0.018134682130457137 -0.0055873749581406788 0.016885175175601685 0.071709579716999691 0.025030905893211931 0.011040827976527777 -0.010185106599980421 0.0031711172638756984 0.019783922166415193 0.014843908326496458 0.019555212189187748 0.030264056654126861 -0.013506881990988373 0.023400056960161151 -0.001523023248088246 0.021747309547408951 0.017287172264116666 0.0094558514643310592 0.0078808462864895651 0.024639080319038813 0.024792001220988808 -0.0012234448413118494 0.065341826763361019 0.01240138720042587 0.025806284067767978 0.013184174780280142 0.030240726909126797 0.0027421332960050021 -0.0029942740276543756 0.018075578276493916 0.025496524350853828 0.027322443762111577 0.019659076851184606 0.032597854956960548 0.031779894185486261 0.010934697552834131 -0.0074551216246230515 0.034255136050762892 0.008322323796560855 0.025582840813461044 0.01932777113670256 0.038324932182797457 0.025038022934832083 0.013581307553252004 0.012729535740208501 0.012211634708785203 0.00083443390263714275 0.0058882569240000966 -0.00020214499468250042 -0.018504601881981397 0.049081179515881826 0.016181764578780979 0.0044525843206231208 0.0081350534775528269 0.054121265476830063 0.0026784771696431579 0.012771660843276978 -0.00034995943218030234 0.022035542376206842 0.032229758533830512 0.014532762482586645 0.037574537014641661
leaf_weight=4072394 2663 16404 350427 15396 2362 16478 21507 398231 173830 28515 33827 14559 19247 341656 17296 46919 26348 3741 67754 86600 26768 23904 153583 57503 18644 25135 54991 15468 9348 206509 19466 15079 11339 28701 19958 21495 109306 440091 29460 42758 11875 4091 27557 17361 24044 40755 31804 71395 55281 67412 1295726 6363 36663 81442 42259 4475 51008 6246 119247 7690 18387 30404 12861
leaf_count=4072394 2663 16404 350427 15396 2362 16478 21507 398231 173830 28515 33827 14559 19247 341656 17296 46919 26348 3741 67754 86600 26768 23904 153583 57503 18644 25135 54991 15468 9348 206509 19466 15079 11339 28701 19958 21495 109306 440091 29460 42758 11875 4091 27557 17361 24044 40755 31804 71395 55281 67412 1295726 6363 36663 81442 42259 4475 51008 6246 119247 7690 18387 30404 12861
internal_value=-0.000941414 0.0208494 -0.00286775 0.00272571 0.0314649 0.0141619 0.00837105 -0.00398699 0.000489787 0.019454 0.0105687 0.00576232 0.035685 -0.00429785 0.024073 -0.00152064 0.0163778 -0.00354589 0.00333229 -0.00065314 0.0155905 0.0236497 0.000993612 0.038476 0.0037505 0.0213699 0.00822073 0.0307058 0.0100058 -0.00212474 0.0141399 0.0148002 0.0136706 0.0136954 0.0275529 0.0252029 0.00663313 -0.00227664 0.0313506 0.00311827 0.0195936 0.00665286 0.0358388 0.0176729 0.0111493 0.0074329 0.0127819 0.00182489 0.00520626 0.000439623 -0.00394218 0.0280277 0.0125266 0.00156547 0.00222827 0.0249966 -0.00085542 0.00340818 -0.00151716 0.0110567 0.0285283 0.0122622 0.0332895
internal_weight=9.15001e+06 743175 8.40683e+06 1.4017e+06 287234 455941 397665 7.00513e+06 1.00404e+06 184383 271558 299940 182845 6.22102e+06 104389 784109 97725 2.14863e+06 287934 716103 95991 88392 246429 117168 203474 58125 174650 65677 96466 655748 71377 96908 81829 69223 58749 38791 111969 511244 63315 184830 45640 71845 59665 33765 40522 50103 46363 114153 70677 71153 1.63738e+06 30267 70490 128361 216089 29610 257517 92846 469674 62681 33855 51911 32108
internal_count=9150006 743175 8406831 1401702 287234 455941 397665 7005129 1004037 184383 271558 299940 182845 6221020 104389 784109 97725 2148626 287934 716103 95991 88392 246429 117168 203474 58125 174650 65677 96466 655748 71377 96908 81829 69223 58749 38791 111969 511244 63315 184830 45640 71845 59665 33765 40522 50103 46363 114153 70677 71153 1637382 30267 70490 128361 216089 29610 257517 92846 469674 62681 33855 51911 32108
cat_boundaries=0 4 9 10 14 18 19 23 27 32 36 41 44 48 52
cat_threshold=268435456 4292953984 106954783 4270208 8423432 794648 1091052624 286364160 4 6680 34816 786440 17301504 266240 2048 537482624 36347912 66689 4624 302024704 1994744592 256376839 67714 320081920 3242491905 290458902 641778464 4761618 622016 2466816032 1224999936 3 1745518720 1862883200 573079560 68625 16 799628736 2449612929 1713 3 2048 524288 8 268471328 841840520 44564510 65617 2147483714 4024516608 2220884103 2178
is_linear=0
shrinkage=0.05


Tree=12
num_leaves=64
num_cat=11
split_feature=18 18 16 16 15 15 9 9 17 17 17 17 17 18 18 19 17 9 9 16 16 15 17 9 9 9 1 8 9 17 1 9 18 16 18 1 1 9 9 1 18 16 17 9 1 9 18 17 18 1 18 15 9 1 18 8 0 15 9 1 1 9 9
split_gain=139754 20745.6 19168.2 6779.69 3318.56 3077.49 2136.84 2011.91 1929.62 1126.83 973.591 947.224 838.844 787.019 786.723 700.311 683.741 546.076 407.838 375.503 364.526 315.206 310.102 298.069 294.047 287.567 283.189 279.671 266.25 238.527 233.63 221.385 224.44 216.456 208.686 203.905 202.506 200.548 196.674 196.552 196.136 195.26 193.886 184.064 176.634 174.459 160.237 159.685 158.924 155.545 153.212 150.067 149.944 140.332 140.223 139.53 137.28 130.044 128.988 125.999 124.03 123.024 122.754
threshold=44.142857142857174 22.285714285714295 71.008000000000024 41.003000000000007 82.003000000000014 60.010000000000012 4.5000000000000009 4.5000000000000009 19.538000000000004 52.007500000000007 102.00600000000001 63.003000000000007 56.001500000000007 30.71428571428573 32.999999999999993 10.071428571428447 65.038000000000011 5.5000000000000009 4.5000000000000009 58.013500000000008 42.00650000000001 167.01600000000005 44.004500000000007 4.5000000000000009 4.5000000000000009 4.5000000000000009 0 50.500000000000007 4.5000000000000009 33.995000000000012 1 4.5000000000000009 75.000000000000071 47.00350000000001 75.000000000000071 2 3 4.5000000000000009 4.5000000000000009 4 78.649785714285755 28.002500000000001 33.995000000000012 5.5000000000000009 5 4.5000000000000009 68.428571428571487 25.004000000000001 152.6428571428572 6 32.000000000000121 44.008000000000003 2.5000000000000004 7 75.000000000000071 50.500000000000007 8 59.004500000000007 5.5000000000000009 9 10 2.5000000000000004 4.5000000000000009
decision_type=10 8 10 10 10 10 2 2 10 10 8 8 10 8 10 10 10 2 2 10 8 10 10 2 2 2 9 2 2 10 9 2 10 10 10 9 9 2 2 9 10 10 10 2 9 2 10 10 10 9 10 10 2 9 10 2 9 10 2 9 9 2 2
left_child=1 8 5 7 16 9 26 13 15 20 24 23 19 47 22 -1 37 41 53 50 27 38 36 33 35 40 51 45 34 39 56 32 52 60 -18 -6 -9 46 48 -15 -13 -10 -19 -38 -45 61 -4 -3 59 -16 -8 -5 -11 -17 -37 -14 -20 -21 -51 -12 -7 -2 -22
right_child=2 3 4 6 10 11 12 14 17 31 21 25 55 29 49 18 28 42 30 57 62 -23 -24 -25 -26 -27 -28 -29 -30 -31 -32 -33 -34 -35 -36 54 43 -39 -40 -41 -42 -43 -44 44 -46 -47 -48 -49 -50 58 -52 -53 -54 -55 -56 -57 -58 -59 -60 -61 -62 -63 -64
leaf_value=-0.033818036104494652 0.011153356721741482 -0.0056785675356332624 0.018059515495406644 0.011028999105081823 0.02972648038129512 0.028599180820071748 0.0089377508533194355 0.025431614101738182 -0.008710972511619253 0.017478797647522745 0.029944188989007487 0.020213986653858634 0.019926068644356653 0.0079801396518480623 0.0060076683715900199 -0.013484506343828593 0.023247505811430806 -0.00053948180276426345 0.016549441989250586 0.015185008930136582 0.01313557958637375 0.069018124358319444 0.011367720758959452 0.024094669237901434 0.033639907805174084 0.031282907116919605 0.0062563301867559831 0.032613062945836498 0.031837373154325596 0.0060731516261517907 -0.0077315377434378444 0.024496863114053264 0.025925687254892821 0.019734265979716174 0.030430480010370853 0.022846606844412268 0.0017990438033890445 0.024807291286482749 0.038507607750172652 -2.2968501109371406e-05 0.030756202275273717 -0.00073029601510030335 0.0055964768030547386 0.011262654935461429 0.0043163344397100928 0.023566940850258542 0.025333631042974387 -0.0003909209028334791 0.041338347212933703 0.011996117391215278 0.012657858665980473 0.017314227958599496 0.013207879292523733 -0.0183542713593704 0.033320946545648648 0.0088086086827614592 -0.0003312667426685228 0.01985162373592099 0.017911165754217039 0.030671679713350872 0.014038812054969785 0.006886567423105042 0.020617633559033659
leaf_weight=3912922 53739 367685 18826 25137 16785 11899 42100 5133 551132 36719 14186 20325 37937 81021 9072 362356 15009 146735 3627 23205 66403 38039 24939 26343 31837 23857 95256 9113 20121 105159 444265 15596 13353 28799 22514 3525 103721 12662 28740 222311 22831 95338 47283 31170 60146 10207 15457 170009 9083 26031 32661 11267 22921 1301796 16254 1502 66548 8629 21116 9186 20718 49127 10411
leaf_count=3912922 53739 367685 18826 25137 16785 11899 42100 5133 551132 36719 14186 20325 37937 81021 9072 362356 15009 146735 3627 23205 66403 38039 24939 26343 31837 23857 95256 9113 20121 105159 444265 15596 13353 28799 22514 3525 103721 12662 28740 222311 22831 95338 47283 31170 60146 10207 15457 170009 9083 26031 32661 11267 22921 1301796 16254 1502 66548 8629 21116 9186 20718 49127 10411
internal_value=-0.00100586 -0.00280401 0.0202252 0.00251664 0.0306642 0.0138012 0.00957179 0.000920588 -0.00395933 0.0107417 0.0350248 0.019486 0.0137364 -0.000183184 0.00463288 -0.0042692 0.0236751 -0.00171352 -0.00355072 0.0114314 0.00865352 0.0381883 0.00331153 0.0160679 0.0304352 0.0239623 0.00495253 0.00695677 0.0273234 0.00147126 -0.00232029 0.0154326 0.0142772 0.0141595 0.024835 0.0273761 0.00265649 0.0191953 0.0359666 0.000759859 0.021527 -0.00241171 0.00061288 0.00239796 0.00403511 0.00627767 0.0172093 -0.00144008 0.0332992 0.00992378 0.00949486 0.00870352 0.0129653 -0.00393108 0.0238721 0.0199664 0.000360831 0.0159791 0.0110771 0.031118 0.0113703 0.00565901 0.0113525
internal_weight=9.15179e+06 8.43721e+06 714585 1.50521e+06 272224 442361 277694 1.22751e+06 6.932e+06 287589 167635 154772 146034 946185 281328 6.09151e+06 104589 840488 2.17859e+06 106595 199000 99234 225109 87759 68401 67013 131660 122186 57644 408491 514440 88589 72993 61416 37523 36564 200170 46945 61195 303332 43156 646470 194018 195037 91316 113073 34283 537694 32455 56219 74761 36404 59640 1.66415e+06 19779 39439 70175 31834 47147 23372 32617 102866 76814
internal_count=9151794 8437209 714585 1505207 272224 442361 277694 1227513 6932002 287589 167635 154772 146034 946185 281328 6091514 104589 840488 2178592 106595 199000 99234 225109 87759 68401 67013 131660 122186 57644 408491 514440 88589 72993 61416 37523 36564 200170 46945 61195 303332 43156 646470 194018 195037 91316 113073 34283 537694 32455 56219 74761 36404 59640 1664152 19779 39439 70175 31834 47147 23372 32617 102866 76814
cat_boundaries=0 4 8 12 16 20 25 30 34 35 39 43
cat_threshold=335544320 4290904576 106954767 75840 2048 611712 35823624 66688 2147483714 4292952064 73400455 2050 0 589952 0 1024 268437504 4276967048 50855957 71872 155918852 1795183620 3791822849 1073873424 3 303038504 3309338656 6561366 268450082 4 268438560 1041069960 40370206 65617 33792 2147483714 4024516608 73400455 2050 302024704 3756286736 189268039 2180
is_linear=0
shrinkage=0.05


Tree=13
num_leaves=64
num_cat=14
split_feature=15 16 19 17 17 19 15 19 15 9 16 16 9 17 17 19 9 17 9 19 1 15 9 17 19 1 16 19 9 9 9 9 1 1 15 15 17 12 19 1 16 9 5 19 1 1 1 19 1 8 8 8 9 19 8 5 1 10 9 15 1 19 1
split_gain=125978 20243.6 18401.9 3610.98 3452.62 3117.33 3016.59 1151.18 1146.18 1081.46 906.579 905.247 845.209 763.537 755.141 663.912 570.725 473.696 385.282 376.922 351.1 315.237 294.32 288.73 272.067 271.697 252.832 250.266 267.345 244.202 242.369 233.651 232.553 231.657 228.308 219.998 217.657 200.189 182.247 174.165 173.596 160.832 160.637 156.193 154.272 152.482 148.222 146.62 145.412 140.645 139.456 136.398 131.76 185.799 129.973 128.494 127.392 121.857 121.579 121.044 120.905 119.345 115.684
threshold=45.031500000000008 72.003000000000014 25.21428571428573 44.004500000000007 47.017500000000005 15.928571428571432 100.00200000000002 36.715285714285699 73.01700000000001 4.5000000000000009 41.003000000000007 50.001000000000012 4.5000000000000009 73.004500000000021 133.00150000000002 8.28571428571429 4.5000000000000009 65.038000000000011 4.5000000000000009 35.428571428571338 0 30.005500000000001 4.5000000000000009 38.001500000000007 46.394357142857146 1 42.00650000000001 47.571428571428591 4.5000000000000009 4.5000000000000009 5.5000000000000009 4.5000000000000009 2 3 67.003000000000014 67.003000000000014 65.038000000000011 1.0000000180025095e-35 55.000000000000014 4 157.05150000000003 5.5000000000000009 5 73.884660714285658 6 7 8 83.366785714285669 9 51.500000000000007 1.5000000000000002 51.500000000000007 4.5000000000000009 51.642857142857046 2.5000000000000004 10 11 1.0000000180025095e-35 5.5000000000000009 145.15250000000003 12 142.86535714285708 13
decision_type=10 10 10 10 8 8 10 10 10 2 10 10 2 10 8 10 2 10 2 10 9 8 2 10 10 9 10 10 2 2 2 2 9 9 10 10 10 2 8 9 10 2 1 10 9 9 9 10 9 2 2 2 2 10 2 1 9 2 2 10 9 10 9
left_child=2 4 5 7 10 15 13 12 17 21 19 27 37 34 20 -1 62 26 24 41 -8 48 46 33 -9 54 -6 28 -5 47 38 43 44 50 -3 -12 -13 56 -10 -20 -16 -2 58 57 -18 -14 -22 -21 -7 -26 -11 -33 53 -19 55 -23 -4 -15 -35 -40 -31 -48 -17
right_child=1 6 3 11 8 9 14 18 30 23 35 36 45 31 40 16 32 52 39 29 22 25 -24 -25 49 -27 -28 -29 -30 60 -32 51 -34 42 -36 -37 -38 -39 59 -41 -42 -43 -44 -45 -46 -47 61 -49 -50 -51 -52 -53 -54 -55 -56 -57 -58 -59 -60 -61 -62 -63 -64
leaf_value=-0.036129264330855615 0.003697604360524364 0.019685332924739844 0.0026353900067946916 0.0076318217394234569 0.012311952352875657 -0.0062863261306223706 0.071848083388491135 0.0049172575759463049 0.018005554625874328 0.039052960549069392 0.012372386458251014 0.014815884794988861 0.012270067201648381 0.021271315577702302 0.037926699354191712 -0.015923775672003582 0.014082916101025396 0.01524873291949325 0.025426938598623324 0.010983267120915623 0.031002426563820837 0.041016708572608113 0.035379171324145343 0.0064044308173202801 0.01045926189365382 -0.0054746488376391294 0.013684604220581417 0.017078543286399597 0.012350284192295639 0.028992494809874099 0.031014298656198987 0.02988785958291176 -0.0091674470132776971 -0.0019914887304744899 0.023044753014754039 0.02100664988626632 0.025573152937840366 0.0048260933227283007 0.023203920446756773 0.012246888097348911 0.065991125849523422 0.0091790390681460478 -0.0043569670766793267 0.027937200429228783 -0.0040414583531359922 0.0053254602573718571 0.027027358207342117 0.065460664256705547 -0.010381289321181453 0.035234108868566379 0.0034960787445099551 0.015543755224579438 0.020855991179383582 0.020338117857568672 0.0015111839461649751 0.011647162817909052 -0.0024286550113726824 0.028454584588025203 0.003092812550098916 0.052978509698513601 0.014051385809906764 0.03968208379007359 -0.021082609708591618
leaf_weight=3167565 50966 33967 79927 78255 37331 264419 2066 140976 10503 6504 73784 40176 24400 7255 23561 387462 5623 8690 9565 54857 13149 6917 30355 44760 77471 111960 61741 33546 33115 6563 16274 30551 450328 87134 35822 26960 28246 69604 39761 16820 36911 22236 146083 31289 280960 96848 13117 2637 752718 2586 79809 785 23394 27517 14348 7262 330938 1363 80222 4680 9595 6121 1450369
leaf_count=3167565 50966 33967 79927 78255 37331 264419 2066 140976 10503 6504 73784 40176 24400 7255 23561 387462 5623 8690 9565 54857 13149 6917 30355 44760 77471 111960 61741 33546 33115 6563 16274 30551 450328 87134 35822 26960 28246 69604 39761 16820 36911 22236 146083 31289 280960 96848 13117 2637 752718 2586 79809 785 23394 27517 14348 7262 330938 1363 80222 4680 9595 6121 1450369
internal_value=-0.00105897 0.0186643 -0.00280398 0.00334642 0.0125041 -0.00369372 0.0297095 0.00188536 0.0169165 -0.00174354 0.00840722 0.0091618 0.00070484 0.024694 0.0353556 -0.00423783 -0.00364152 0.0145512 0.00475636 0.0059013 0.0316058 -0.00254851 0.0322729 0.000352835 0.00407466 -0.000328395 0.0124323 0.0069238 0.00578342 0.00842665 0.0221862 0.0283352 -0.00246591 -7.35718e-05 0.0209769 0.0120601 0.0139018 -0.00023653 0.0205988 0.0104671 0.0393743 0.00336043 -0.000705204 0.0257979 -0.00135232 0.00443521 0.0289627 0.00690037 -0.00285516 0.0064025 0.00221997 0.0315666 0.0180734 0.0161837 0.00402688 0.0074233 -0.000656604 0.0198375 0.00035234 0.0219987 0.0138575 0.0260863 -0.0041129
internal_weight=9.15072e+06 743801 8.40692e+06 1.06247e+06 477489 7.34444e+06 266312 849135 229891 1.60214e+06 247598 213338 601717 141032 125280 5.74231e+06 2.57474e+06 158673 247418 146854 64808 1.15762e+06 62742 444512 221033 140487 99072 144916 111370 73652 71218 71243 736911 399752 69789 100744 68422 480469 54944 26385 60472 73202 313439 39907 286583 121248 32387 57494 1.01714e+06 80057 86313 31336 59601 36207 28527 14179 410865 8618 167356 44441 16158 19238 1.83783e+06
internal_count=9150717 743801 8406916 1062473 477489 7344443 266312 849135 229891 1602136 247598 213338 601717 141032 125280 5742307 2574742 158673 247418 146854 64808 1157624 62742 444512 221033 140487 99072 144916 111370 73652 71218 71243 736911 399752 69789 100744 68422 480469 54944 26385 60472 73202 313439 39907 286583 121248 32387 57494 1017137 80057 86313 31336 59601 36207 28527 14179 410865 8618 167356 44441 16158 19238 1837831
cat_boundaries=0 5 9 14 19 24 25 28 33 37 41 42 46 50 54
cat_threshold=272664576 794648 17309744 285282304 4 2147483648 4292952196 39845903 3232 134875809 614272 304783368 16843984 2 526341 1848204672 304775208 66705 1 671090832 680099200 2584215680 1075922432 2 4912 2048 524288 2097160 4237312 613824 2433359912 3373335553 3 64 4024500224 71303303 2048 268437504 1982691200 1193804310 4259857 12880 335546368 906875426 3339198480 1159376 541723280 2307489152 1107861632 136315924 268438560 302872448 36176415 4259921
is_linear=0
shrinkage=0.05


Tree=14
num_leaves=64
num_cat=21
split_feature=18 18 16 16 17 17 16 9 9 9 9 9 18 18 18 18 18 18 9 18 18 17 9 9 9 1 18 7 16 5 1 1 18 1 1 1 1 18 1 5 18 9 17 1 7 9 1 9 1 17 9 9 5 9 18 1 1 1 18 1 1 5 1
split_gain=115258 17973.6 17659.8 5376.49 2884.53 2696.8 1831.29 1653.68 1625.56 879.46 829.733 826.57 761.54 745.464 720.486 708.998 656.63 618.583 773.385 603.475 501.01 470.53 443.573 419.18 263.742 252.128 238.33 226.489 223.004 222.786 212.857 207.402 206.65 204.016 203.565 199.242 196.701 193.22 185.749 185.261 183.505 178.855 175.965 172.573 168.932 164.252 163.074 153.199 151.752 150.776 140.322 138.942 137.242 133.57 131.892 130.571 127.812 123.641 121.914 120.877 120.376 117.618 116.893
threshold=44.142857142857174 21.71428571428573 76.015500000000017 41.003000000000007 58.005000000000003 101.01550000000002 19.006000000000004 4.5000000000000009 5.5000000000000009 4.5000000000000009 4.5000000000000009 4.5000000000000009 9.0000000000000089 59.14285714285716 75.000000000000071 30.285714285714295 30.71428571428573 152.6428571428572 4.5000000000000009 78.649785714285755 32.49935714285715 46.014000000000003 4.5000000000000009 5.5000000000000009 2.5000000000000004 0 75.000000000000071 1.5000000000000002 42.00650000000001 1 2 3 63.285714285714299 4 5 6 7 129.29557142857144 8 9 129.29557142857144 4.5000000000000009 25.740500000000004 10 11.500000000000002 2.5000000000000004 11 1.0000000180025095e-35 12 25.740500000000004 5.5000000000000009 1.0000000180025095e-35 13 1.0000000180025095e-35 35.142857142857174 14 15 16 78.649785714285755 17 18 19 20
decision_type=10 8 10 10 8 10 10 2 2 2 2 2 10 10 10 8 10 10 2 10 10 10 2 2 2 9 10 2 10 1 9 9 10 9 9 9 9 10 9 1 10 2 10 9 2 2 9 2 9 10 2 2 1 2 10 9 9 9 10 9 9 1 9
left_child=1 6 4 7 11 9 12 15 21 19 14 13 -1 28 27 49 29 18 36 31 -10 54 48 42 44 61 38 -6 -2 -9 -24 -4 -11 -17 -22 -25 -7 45 -12 50 53 56 -8 -43 62 -16 -31 -35 -14 -3 -18 -29 -32 -21 -5 -26 -23 -41 -20 -34 -52 -13 -15
right_child=2 3 5 8 10 17 23 16 20 32 26 25 22 24 37 33 39 -19 58 40 34 41 30 35 55 -27 -28 51 -30 46 52 -33 59 47 -36 -37 -38 -39 -40 57 -42 43 -44 -45 -46 -47 -48 -49 -50 -51 60 -53 -54 -55 -56 -57 -58 -59 -60 -61 -62 -63 -64
leaf_value=-0.033323248107582581 0.008105571759231418 -0.0054528350241459713 0.022138356427961168 0.0049676144549743104 0.010220003612019102 0.029926430892385721 -0.0085647248546648191 0.0081037482843171246 0.01160802623123817 0.022403614606383501 0.023786615802468297 0.03062979501243045 -0.01338797236772149 0.0032821373233748591 0.02419884491874472 0.0068808550372913991 0.0099353510146864762 0.063491081298839278 0.031266157360694213 0.025984801033076061 0.020122534701852796 0.015420200958633402 0.0020248263658652699 0.0038893140513436772 0.02342055001539714 0.015896445966181259 0.041800773179145954 0.019453052391164592 0.010717874960132994 0.0072821921512953164 -0.0044112392272029899 0.017392399868197145 0.030677851975260351 0.0052304144897931054 0.013995118649672594 -0.0018623901684223826 0.028219031725544311 0.045793344097169023 0.017389172376494851 0.013728349790320544 0.04181450096767398 0.018684500535220489 -0.0015245476842098498 0.011204836759557342 0.041550803120328383 0.018910390344957607 0.00053676627577220926 5.1258316403868244e-05 -0.017659801051236591 -0.00047435953795584853 0.0064433779889248345 0.016109528107470118 -0.010432996713379357 0.022985410273075761 0.008754798306648966 0.010448233462371169 0.0084438308246497871 0.0055808782000882316 0.038848592874157921 0.034246452123612568 0.017939111955339107 0.02419370016594008 0.016993565172087836
leaf_weight=3522556 99580 399492 13987 82084 14382 15014 467982 59199 42720 23156 23659 9031 443884 1982 23864 124470 20252 34471 14043 8094 22561 12900 50270 87278 13130 28870 9106 14490 57563 64018 262436 21510 3957 56211 18997 120296 20324 6360 14891 17318 11745 5912 128030 20546 8293 16742 96839 247086 1498132 171291 2428 47541 274477 26016 54997 28412 22124 25887 27025 24659 13576 12585 39827
leaf_count=3522556 99580 399492 13987 82084 14382 15014 467982 59199 42720 23156 23659 9031 443884 1982 23864 124470 20252 34471 14043 8094 22561 12900 50270 87278 13130 28870 9106 14490 57563 64018 262436 21510 3957 56211 18997 120296 20324 6360 14891 17318 11745 5912 128030 20546 8293 16742 96839 247086 1498132 171291 2428 47541 274477 26016 54997 28412 22124 25887 27025 24659 13576 12585 39827
internal_value=-0.00111604 -0.0027489 0.0181687 0.00205699 0.012506 0.0290835 -0.00385718 0.000695891 0.00830359 0.0242862 0.0176857 0.00954575 -0.00415497 0.00836203 0.0155213 -0.000281509 0.00395442 0.0348432 0.0323348 0.0210442 0.0141218 0.00583409 -0.00349304 -0.00161455 0.011946 0.0153789 0.0232892 0.0125258 0.0062719 0.00254762 -0.00228884 0.0161497 0.0293806 0.00125749 0.0180305 0.000320511 0.0269118 0.020395 0.0215707 0.00785033 0.0248332 0.00946846 -0.00228848 0.0125712 0.0143884 0.0191257 0.00158214 0.000557899 -0.00385714 -0.0014349 0.010487 0.0138365 -0.0025801 0.0229771 0.00420405 0.00900029 0.00712454 0.00563404 0.0370011 0.0322222 0.013989 0.0194705 0.0130954
internal_weight=9.15056e+06 8.43625e+06 714309 1.58091e+06 470308 244001 6.85534e+06 1.29807e+06 282841 133124 171035 299273 6.05176e+06 248787 123379 998550 299517 110877 76406 81352 84278 198563 2.5292e+06 803586 91644 50486 47656 76413 157143 220056 587183 35497 51772 427767 41558 207574 35338 46966 38550 79461 45855 61482 596012 26458 50102 40606 160857 303297 1.94202e+06 570783 36256 62031 536913 34110 137081 41542 35024 43205 41068 28616 16004 21616 41809
